{"learner":{"attributes":{"best_iteration":"1249","best_score":"22.92558858909276"},"feature_names":["physical_damage","quality","minutes_since_league_start_physical_damage","minutes_since_league_start_quality","open_prefixes_quality","open_suffixes_quality","ilvl_physical_damage","ilvl_quality","physical_damage_critical_hit_chance","physical_damage_attacks_per_second","physical_damage__n_to_level_of_all_projectile_skills","physical_damage_np_increased_light_radius","physical_damage_leeches_n_np_of_physical_damage_as_mana","physical_damage_leeches_n_np_of_physical_damage_as_life","physical_damage_gain_n_mana_per_enemy_killed","physical_damage__np_to_critical_damage_bonus","physical_damage_grants_n_life_per_enemy_hit","physical_damage__n_to_dexterity","physical_damage_np_reduced_attribute_requirements","physical_damage_quality","physical_damage_bow_attacks_fire_an_additional_arrow","physical_damage_np_chance_to_chain_an_additional_time","log_exalts"],"feature_types":["float","float","float","float","float","float","float","float","float","float","float","float","float","float","float","float","float","float","float","float","float","float","float"],"gradient_booster":{"model":{"gbtree_model_param":{"num_parallel_tree":"1","num_trees":"1250"},"iteration_indptr":[0,1,2,3,4,5,6,7,8,9,10,11,12,13,14,15,16,17,18,19,20,21,22,23,24,25,26,27,28,29,30,31,32,33,34,35,36,37,38,39,40,41,42,43,44,45,46,47,48,49,50,51,52,53,54,55,56,57,58,59,60,61,62,63,64,65,66,67,68,69,70,71,72,73,74,75,76,77,78,79,80,81,82,83,84,85,86,87,88,89,90,91,92,93,94,95,96,97,98,99,100,101,102,103,104,105,106,107,108,109,110,111,112,113,114,115,116,117,118,119,120,121,122,123,124,125,126,127,128,129,130,131,132,133,134,135,136,137,138,139,140,141,142,143,144,145,146,147,148,149,150,151,152,153,154,155,156,157,158,159,160,161,162,163,164,165,166,167,168,169,170,171,172,173,174,175,176,177,178,179,180,181,182,183,184,185,186,187,188,189,190,191,192,193,194,195,196,197,198,199,200,201,202,203,204,205,206,207,208,209,210,211,212,213,214,215,216,217,218,219,220,221,222,223,224,225,226,227,228,229,230,231,232,233,234,235,236,237,238,239,240,241,242,243,244,245,246,247,248,249,250,251,252,253,254,255,256,257,258,259,260,261,262,263,264,265,266,267,268,269,270,271,272,273,274,275,276,277,278,279,280,281,282,283,284,285,286,287,288,289,290,291,292,293,294,295,296,297,298,299,300,301,302,303,304,305,306,307,308,309,310,311,312,313,314,315,316,317,318,319,320,321,322,323,324,325,326,327,328,329,330,331,332,333,334,335,336,337,338,339,340,341,342,343,344,345,346,347,348,349,350,351,352,353,354,355,356,357,358,359,360,361,362,363,364,365,366,367,368,369,370,371,372,373,374,375,376,377,378,379,380,381,382,383,384,385,386,387,388,389,390,391,392,393,394,395,396,397,398,399,400,401,402,403,404,405,406,407,408,409,410,411,412,413,414,415,416,417,418,419,420,421,422,423,424,425,426,427,428,429,430,431,432,433,434,435,436,437,438,439,440,441,442,443,444,445,446,447,448,449,450,451,452,453,454,455,456,457,458,459,460,461,462,463,464,465,466,467,468,469,470,471,472,473,474,475,476,477,478,479,480,481,482,483,484,485,486,487,488,489,490,491,492,493,494,495,496,497,498,499,500,501,502,503,504,505,506,507,508,509,510,511,512,513,514,515,516,517,518,519,520,521,522,523,524,525,526,527,528,529,530,531,532,533,534,535,536,537,538,539,540,541,542,543,544,545,546,547,548,549,550,551,552,553,554,555,556,557,558,559,560,561,562,563,564,565,566,567,568,569,570,571,572,573,574,575,576,577,578,579,580,581,582,583,584,585,586,587,588,589,590,591,592,593,594,595,596,597,598,599,600,601,602,603,604,605,606,607,608,609,610,611,612,613,614,615,616,617,618,619,620,621,622,623,624,625,626,627,628,629,630,631,632,633,634,635,636,637,638,639,640,641,642,643,644,645,646,647,648,649,650,651,652,653,654,655,656,657,658,659,660,661,662,663,664,665,666,667,668,669,670,671,672,673,674,675,676,677,678,679,680,681,682,683,684,685,686,687,688,689,690,691,692,693,694,695,696,697,698,699,700,701,702,703,704,705,706,707,708,709,710,711,712,713,714,715,716,717,718,719,720,721,722,723,724,725,726,727,728,729,730,731,732,733,734,735,736,737,738,739,740,741,742,743,744,745,746,747,748,749,750,751,752,753,754,755,756,757,758,759,760,761,762,763,764,765,766,767,768,769,770,771,772,773,774,775,776,777,778,779,780,781,782,783,784,785,786,787,788,789,790,791,792,793,794,795,796,797,798,799,800,801,802,803,804,805,806,807,808,809,810,811,812,813,814,815,816,817,818,819,820,821,822,823,824,825,826,827,828,829,830,831,832,833,834,835,836,837,838,839,840,841,842,843,844,845,846,847,848,849,850,851,852,853,854,855,856,857,858,859,860,861,862,863,864,865,866,867,868,869,870,871,872,873,874,875,876,877,878,879,880,881,882,883,884,885,886,887,888,889,890,891,892,893,894,895,896,897,898,899,900,901,902,903,904,905,906,907,908,909,910,911,912,913,914,915,916,917,918,919,920,921,922,923,924,925,926,927,928,929,930,931,932,933,934,935,936,937,938,939,940,941,942,943,944,945,946,947,948,949,950,951,952,953,954,955,956,957,958,959,960,961,962,963,964,965,966,967,968,969,970,971,972,973,974,975,976,977,978,979,980,981,982,983,984,985,986,987,988,989,990,991,992,993,994,995,996,997,998,999,1000,1001,1002,1003,1004,1005,1006,1007,1008,1009,1010,1011,1012,1013,1014,1015,1016,1017,1018,1019,1020,1021,1022,1023,1024,1025,1026,1027,1028,1029,1030,1031,1032,1033,1034,1035,1036,1037,1038,1039,1040,1041,1042,1043,1044,1045,1046,1047,1048,1049,1050,1051,1052,1053,1054,1055,1056,1057,1058,1059,1060,1061,1062,1063,1064,1065,1066,1067,1068,1069,1070,1071,1072,1073,1074,1075,1076,1077,1078,1079,1080,1081,1082,1083,1084,1085,1086,1087,1088,1089,1090,1091,1092,1093,1094,1095,1096,1097,1098,1099,1100,1101,1102,1103,1104,1105,1106,1107,1108,1109,1110,1111,1112,1113,1114,1115,1116,1117,1118,1119,1120,1121,1122,1123,1124,1125,1126,1127,1128,1129,1130,1131,1132,1133,1134,1135,1136,1137,1138,1139,1140,1141,1142,1143,1144,1145,1146,1147,1148,1149,1150,1151,1152,1153,1154,1155,1156,1157,1158,1159,1160,1161,1162,1163,1164,1165,1166,1167,1168,1169,1170,1171,1172,1173,1174,1175,1176,1177,1178,1179,1180,1181,1182,1183,1184,1185,1186,1187,1188,1189,1190,1191,1192,1193,1194,1195,1196,1197,1198,1199,1200,1201,1202,1203,1204,1205,1206,1207,1208,1209,1210,1211,1212,1213,1214,1215,1216,1217,1218,1219,1220,1221,1222,1223,1224,1225,1226,1227,1228,1229,1230,1231,1232,1233,1234,1235,1236,1237,1238,1239,1240,1241,1242,1243,1244,1245,1246,1247,1248,1249,1250],"tree_info":[0,0,0,0,0,0,0,0,0,0,0,0,0,0,0,0,0,0,0,0,0,0,0,0,0,0,0,0,0,0,0,0,0,0,0,0,0,0,0,0,0,0,0,0,0,0,0,0,0,0,0,0,0,0,0,0,0,0,0,0,0,0,0,0,0,0,0,0,0,0,0,0,0,0,0,0,0,0,0,0,0,0,0,0,0,0,0,0,0,0,0,0,0,0,0,0,0,0,0,0,0,0,0,0,0,0,0,0,0,0,0,0,0,0,0,0,0,0,0,0,0,0,0,0,0,0,0,0,0,0,0,0,0,0,0,0,0,0,0,0,0,0,0,0,0,0,0,0,0,0,0,0,0,0,0,0,0,0,0,0,0,0,0,0,0,0,0,0,0,0,0,0,0,0,0,0,0,0,0,0,0,0,0,0,0,0,0,0,0,0,0,0,0,0,0,0,0,0,0,0,0,0,0,0,0,0,0,0,0,0,0,0,0,0,0,0,0,0,0,0,0,0,0,0,0,0,0,0,0,0,0,0,0,0,0,0,0,0,0,0,0,0,0,0,0,0,0,0,0,0,0,0,0,0,0,0,0,0,0,0,0,0,0,0,0,0,0,0,0,0,0,0,0,0,0,0,0,0,0,0,0,0,0,0,0,0,0,0,0,0,0,0,0,0,0,0,0,0,0,0,0,0,0,0,0,0,0,0,0,0,0,0,0,0,0,0,0,0,0,0,0,0,0,0,0,0,0,0,0,0,0,0,0,0,0,0,0,0,0,0,0,0,0,0,0,0,0,0,0,0,0,0,0,0,0,0,0,0,0,0,0,0,0,0,0,0,0,0,0,0,0,0,0,0,0,0,0,0,0,0,0,0,0,0,0,0,0,0,0,0,0,0,0,0,0,0,0,0,0,0,0,0,0,0,0,0,0,0,0,0,0,0,0,0,0,0,0,0,0,0,0,0,0,0,0,0,0,0,0,0,0,0,0,0,0,0,0,0,0,0,0,0,0,0,0,0,0,0,0,0,0,0,0,0,0,0,0,0,0,0,0,0,0,0,0,0,0,0,0,0,0,0,0,0,0,0,0,0,0,0,0,0,0,0,0,0,0,0,0,0,0,0,0,0,0,0,0,0,0,0,0,0,0,0,0,0,0,0,0,0,0,0,0,0,0,0,0,0,0,0,0,0,0,0,0,0,0,0,0,0,0,0,0,0,0,0,0,0,0,0,0,0,0,0,0,0,0,0,0,0,0,0,0,0,0,0,0,0,0,0,0,0,0,0,0,0,0,0,0,0,0,0,0,0,0,0,0,0,0,0,0,0,0,0,0,0,0,0,0,0,0,0,0,0,0,0,0,0,0,0,0,0,0,0,0,0,0,0,0,0,0,0,0,0,0,0,0,0,0,0,0,0,0,0,0,0,0,0,0,0,0,0,0,0,0,0,0,0,0,0,0,0,0,0,0,0,0,0,0,0,0,0,0,0,0,0,0,0,0,0,0,0,0,0,0,0,0,0,0,0,0,0,0,0,0,0,0,0,0,0,0,0,0,0,0,0,0,0,0,0,0,0,0,0,0,0,0,0,0,0,0,0,0,0,0,0,0,0,0,0,0,0,0,0,0,0,0,0,0,0,0,0,0,0,0,0,0,0,0,0,0,0,0,0,0,0,0,0,0,0,0,0,0,0,0,0,0,0,0,0,0,0,0,0,0,0,0,0,0,0,0,0,0,0,0,0,0,0,0,0,0,0,0,0,0,0,0,0,0,0,0,0,0,0,0,0,0,0,0,0,0,0,0,0,0,0,0,0,0,0,0,0,0,0,0,0,0,0,0,0,0,0,0,0,0,0,0,0,0,0,0,0,0,0,0,0,0,0,0,0,0,0,0,0,0,0,0,0,0,0,0,0,0,0,0,0,0,0,0,0,0,0,0,0,0,0,0,0,0,0,0,0,0,0,0,0,0,0,0,0,0,0,0,0,0,0,0,0,0,0,0,0,0,0,0,0,0,0,0,0,0,0,0,0,0,0,0,0,0,0,0,0,0,0,0,0,0,0,0,0,0,0,0,0,0,0,0,0,0,0,0,0,0,0,0,0,0,0,0,0,0,0,0,0,0,0,0,0,0,0,0,0,0,0,0,0,0,0,0,0,0,0,0,0,0,0,0,0,0,0,0,0,0,0,0,0,0,0,0,0,0,0,0,0,0,0,0,0,0,0,0,0,0,0,0,0,0,0,0,0,0,0,0,0,0,0,0,0,0,0,0,0,0,0,0,0,0,0,0,0,0,0,0,0,0,0,0,0,0,0,0,0,0,0,0,0,0,0,0,0,0,0,0,0,0,0,0,0,0,0,0,0,0,0,0,0,0,0,0,0,0,0,0,0,0,0,0,0,0,0,0,0,0,0,0,0,0,0,0,0,0,0,0,0,0,0,0,0,0,0,0,0,0,0,0,0,0,0,0,0,0,0,0,0,0,0,0,0,0,0,0,0,0,0,0,0,0,0,0,0,0,0,0,0,0,0,0,0,0,0,0,0,0,0,0,0,0,0,0,0,0,0,0,0,0,0,0,0,0,0,0,0,0,0,0,0,0,0,0,0,0,0,0,0,0,0,0,0,0,0,0,0,0,0,0,0,0,0,0,0,0,0,0,0,0,0,0,0,0,0,0,0,0,0,0,0,0,0,0,0,0,0,0,0,0,0,0,0,0,0,0,0,0,0,0,0,0,0,0,0,0,0,0,0,0,0,0,0,0,0,0,0,0,0,0,0,0,0,0,0,0,0,0,0,0,0,0,0,0,0,0,0,0,0,0,0,0,0,0,0],"trees":[{"base_weights":[-3.9143874E-8,-5.7217236E0,6.989865E2,-8.262943E0,1.8154507E2,3.906352E-1,6.689401E-1,-1.0595068E1,8.554163E0,1.03932425E-1,2.1579012E-1,-1.3941458E1,-8.053785E0,3.9729335E0,2.6383E1,-1.1945084E-2,-1.2901959E1,-8.57294E0,-3.383712E0,1.6640668E0,9.961531E0,1.5727278E-2,2.4688482E-2,-1.0078085E-2,-8.944724E-3,-9.901076E0,-8.26624E0,-3.405117E-3,-3.2542288E0,4.315347E-1,1.2801983E-3,4.995105E-3,8.52911E-3,-7.696441E-3,-6.9349557E-3,-6.212607E-3,-4.504138E-3,-2.4602527E-3,-1.5276629E-3,-1.7489663E-4,4.905039E-4],"categories":[],"categories_nodes":[],"categories_segments":[],"categories_sizes":[],"default_left":[0,0,0,0,0,0,0,0,0,0,0,0,0,0,0,0,0,0,0,0,0,0,0,0,0,0,0,0,0,0,0,0,0,0,0,0,0,0,0,0,0],"id":0,"left_children":[1,3,5,7,9,-1,-1,11,13,-1,-1,15,17,19,21,-1,23,25,27,29,31,-1,-1,-1,-1,33,35,-1,37,39,-1,-1,-1,-1,-1,-1,-1,-1,-1,-1,-1],"loss_changes":[2.7091988E7,3.1989795E6,1.425748E6,2.601165E5,3.7072525E5,0E0,0E0,4.9407188E4,6.5891E4,0E0,0E0,4.978625E3,8.000922E3,8.887929E3,5.1467188E3,0E0,7.03875E2,1.1320156E3,3.5088623E1,2.3882935E1,7.578613E2,0E0,0E0,0E0,0E0,3.5945312E1,4.4828125E1,0E0,2.9482422E0,2.6665199E0,0E0,0E0,0E0,0E0,0E0,0E0,0E0,0E0,0E0,0E0,0E0],"parents":[2147483647,0,0,1,1,2,2,3,3,4,4,7,7,8,8,11,11,12,12,13,13,14,14,16,16,17,17,18,18,19,19,20,20,25,25,26,26,28,28,29,29],"right_children":[2,4,6,8,10,-1,-1,12,14,-1,-1,16,18,20,22,-1,24,26,28,30,32,-1,-1,-1,-1,34,36,-1,38,40,-1,-1,-1,-1,-1,-1,-1,-1,-1,-1,-1],"split_conditions":[6.1696105E0,5.075174E0,6.6795993E0,2.944439E0,5.765191E0,3.906352E-1,6.689401E-1,2.1972246E0,3.583519E0,1.03932425E-1,2.1579012E-1,1.609438E0,2.6390574E0,3.2580965E0,3.9318256E0,-1.1945084E-2,1.9459101E0,2.3978953E0,2.7725887E0,3.0445225E0,3.3672957E0,1.5727278E-2,2.4688482E-2,-1.0078085E-2,-8.944724E-3,2.3025851E0,2.5649493E0,-3.405117E-3,2.8332133E0,2.9957323E0,1.2801983E-3,4.995105E-3,8.52911E-3,-7.696441E-3,-6.9349557E-3,-6.212607E-3,-4.504138E-3,-2.4602527E-3,-1.5276629E-3,-1.7489663E-4,4.905039E-4],"split_indices":[22,22,22,22,22,0,0,22,22,0,0,22,22,22,22,0,22,22,22,22,22,0,0,0,0,22,22,0,22,22,0,0,0,0,0,0,0,0,0,0,0],"split_type":[0,0,0,0,0,0,0,0,0,0,0,0,0,0,0,0,0,0,0,0,0,0,0,0,0,0,0,0,0,0,0,0,0,0,0,0,0,0,0,0,0],"sum_hessian":[6.772E3,6.718E3,5.4E1,6.629E3,8.9E1,3E1,2.4E1,5.822E3,8.07E2,6.5E1,2.4E1,2.511E3,3.311E3,6.43E2,1.64E2,8.58E2,1.653E3,2.979E3,3.32E2,4.65E2,1.78E2,9.2E1,7.2E1,1.059E3,5.94E2,5.53E2,2.426E3,3E1,3.02E2,1.6E1,4.49E2,5.5E1,1.23E2,3.47E2,2.06E2,2.405E3,2.1E1,2.94E2,8E0,4E0,1.2E1],"tree_param":{"num_deleted":"0","num_feature":"23","num_nodes":"41","size_leaf_vector":"1"}},{"base_weights":[2.0239242E-4,-5.717386E0,6.9848157E2,-8.256747E0,1.8141246E2,3.903517E-1,6.6845846E-1,-1.0587132E1,8.547816E0,1.0385565E-1,2.1563475E-1,-1.3931014E1,-8.047755E0,3.9699774E0,2.6363457E1,-1.1936135E-2,-1.2892294E1,-8.56652E0,-3.3811963E0,1.6628225E0,9.954135E0,1.5715608E-2,2.467022E-2,-1.0070533E-2,-8.938026E-3,-9.893677E0,-8.260045E0,-3.4026457E-3,-3.251801E0,4.3122998E-1,1.2792406E-3,4.991425E-3,8.522764E-3,-7.690685E-3,-6.9297794E-3,-6.20795E-3,-4.5009144E-3,-2.4584136E-3,-1.5266443E-3,-1.7479133E-4,4.9016456E-4],"categories":[],"categories_nodes":[],"categories_segments":[],"categories_sizes":[],"default_left":[0,0,0,0,0,0,0,0,0,0,0,0,0,0,0,0,0,0,0,0,0,0,0,0,0,0,0,0,0,0,0,0,0,0,0,0,0,0,0,0,0],"id":1,"left_children":[1,3,5,7,9,-1,-1,11,13,-1,-1,15,17,19,21,-1,23,25,27,29,31,-1,-1,-1,-1,33,35,-1,37,39,-1,-1,-1,-1,-1,-1,-1,-1,-1,-1,-1],"loss_changes":[2.705284E7,3.1943022E6,1.42373E6,2.5972856E5,3.702065E5,0E0,0E0,4.9333188E4,6.5793516E4,0E0,0E0,4.971125E3,7.988875E3,8.874757E3,5.1391484E3,0E0,7.028125E2,1.1303438E3,3.5043213E1,2.3846436E1,7.5671484E2,0E0,0E0,0E0,0E0,3.588672E1,4.475E1,0E0,2.9401855E0,2.6629703E0,0E0,0E0,0E0,0E0,0E0,0E0,0E0,0E0,0E0,0E0,0E0],"parents":[2147483647,0,0,1,1,2,2,3,3,4,4,7,7,8,8,11,11,12,12,13,13,14,14,16,16,17,17,18,18,19,19,20,20,25,25,26,26,28,28,29,29],"right_children":[2,4,6,8,10,-1,-1,12,14,-1,-1,16,18,20,22,-1,24,26,28,30,32,-1,-1,-1,-1,34,36,-1,38,40,-1,-1,-1,-1,-1,-1,-1,-1,-1,-1,-1],"split_conditions":[6.1696105E0,5.075174E0,6.6795993E0,2.944439E0,5.765191E0,3.903517E-1,6.6845846E-1,2.1972246E0,3.583519E0,1.0385565E-1,2.1563475E-1,1.609438E0,2.6390574E0,3.2580965E0,3.9318256E0,-1.1936135E-2,1.9459101E0,2.3978953E0,2.7725887E0,3.0445225E0,3.3672957E0,1.5715608E-2,2.467022E-2,-1.0070533E-2,-8.938026E-3,2.3025851E0,2.5649493E0,-3.4026457E-3,2.8332133E0,2.9957323E0,1.2792406E-3,4.991425E-3,8.522764E-3,-7.690685E-3,-6.9297794E-3,-6.20795E-3,-4.5009144E-3,-2.4584136E-3,-1.5266443E-3,-1.7479133E-4,4.9016456E-4],"split_indices":[22,22,22,22,22,0,0,22,22,0,0,22,22,22,22,0,22,22,22,22,22,0,0,0,0,22,22,0,22,22,0,0,0,0,0,0,0,0,0,0,0],"split_type":[0,0,0,0,0,0,0,0,0,0,0,0,0,0,0,0,0,0,0,0,0,0,0,0,0,0,0,0,0,0,0,0,0,0,0,0,0,0,0,0,0],"sum_hessian":[6.772E3,6.718E3,5.4E1,6.629E3,8.9E1,3E1,2.4E1,5.822E3,8.07E2,6.5E1,2.4E1,2.511E3,3.311E3,6.43E2,1.64E2,8.58E2,1.653E3,2.979E3,3.32E2,4.65E2,1.78E2,9.2E1,7.2E1,1.059E3,5.94E2,5.53E2,2.426E3,3E1,3.02E2,1.6E1,4.49E2,5.5E1,1.23E2,3.47E2,2.06E2,2.405E3,2.1E1,2.94E2,8E0,4E0,1.2E1],"tree_param":{"num_deleted":"0","num_feature":"23","num_nodes":"41","size_leaf_vector":"1"}},{"base_weights":[4.046657E-4,-5.7130513E0,6.979769E2,-8.250556E0,1.8127995E2,3.9006835E-1,6.6797715E-1,-1.0579203E1,8.541474E0,1.03778936E-1,2.1547951E-1,-1.3920578E1,-8.041729E0,3.9670231E0,2.634393E1,-1.1927193E-2,-1.2882636E1,-8.560102E0,-3.3786826E0,1.6615783E0,9.946745E0,1.5703948E-2,2.4651973E-2,-1.0062987E-2,-8.931334E-3,-9.886284E0,-8.253855E0,-3.400176E-3,-3.249375E0,4.3092525E-1,1.2782828E-3,4.9877483E-3,8.516424E-3,-7.6849344E-3,-6.924608E-3,-6.2032957E-3,-4.4976915E-3,-2.4565759E-3,-1.5256271E-3,-1.7468605E-4,4.898252E-4],"categories":[],"categories_nodes":[],"categories_segments":[],"categories_sizes":[],"default_left":[0,0,0,0,0,0,0,0,0,0,0,0,0,0,0,0,0,0,0,0,0,0,0,0,0,0,0,0,0,0,0,0,0,0,0,0,0,0,0,0,0],"id":2,"left_children":[1,3,5,7,9,-1,-1,11,13,-1,-1,15,17,19,21,-1,23,25,27,29,31,-1,-1,-1,-1,33,35,-1,37,39,-1,-1,-1,-1,-1,-1,-1,-1,-1,-1,-1],"loss_changes":[2.7013752E7,3.1896325E6,1.421712E6,2.5934128E5,3.69688E5,0E0,0E0,4.925925E4,6.569615E4,0E0,0E0,4.9637188E3,7.9768438E3,8.861605E3,5.1316094E3,0E0,7.0175E2,1.1287031E3,3.4997314E1,2.3809937E1,7.5557227E2,0E0,0E0,0E0,0E0,3.583203E1,4.4640625E1,0E0,2.9326172E0,2.6594234E0,0E0,0E0,0E0,0E0,0E0,0E0,0E0,0E0,0E0,0E0,0E0],"parents":[2147483647,0,0,1,1,2,2,3,3,4,4,7,7,8,8,11,11,12,12,13,13,14,14,16,16,17,17,18,18,19,19,20,20,25,25,26,26,28,28,29,29],"right_children":[2,4,6,8,10,-1,-1,12,14,-1,-1,16,18,20,22,-1,24,26,28,30,32,-1,-1,-1,-1,34,36,-1,38,40,-1,-1,-1,-1,-1,-1,-1,-1,-1,-1,-1],"split_conditions":[6.1696105E0,5.075174E0,6.6795993E0,2.944439E0,5.765191E0,3.9006835E-1,6.6797715E-1,2.1972246E0,3.583519E0,1.03778936E-1,2.1547951E-1,1.609438E0,2.6390574E0,3.2580965E0,3.9318256E0,-1.1927193E-2,1.9459101E0,2.3978953E0,2.7725887E0,3.0445225E0,3.3672957E0,1.5703948E-2,2.4651973E-2,-1.0062987E-2,-8.931334E-3,2.3025851E0,2.5649493E0,-3.400176E-3,2.8332133E0,2.9957323E0,1.2782828E-3,4.9877483E-3,8.516424E-3,-7.6849344E-3,-6.924608E-3,-6.2032957E-3,-4.4976915E-3,-2.4565759E-3,-1.5256271E-3,-1.7468605E-4,4.898252E-4],"split_indices":[22,22,22,22,22,0,0,22,22,0,0,22,22,22,22,0,22,22,22,22,22,0,0,0,0,22,22,0,22,22,0,0,0,0,0,0,0,0,0,0,0],"split_type":[0,0,0,0,0,0,0,0,0,0,0,0,0,0,0,0,0,0,0,0,0,0,0,0,0,0,0,0,0,0,0,0,0,0,0,0,0,0,0,0,0],"sum_hessian":[6.772E3,6.718E3,5.4E1,6.629E3,8.9E1,3E1,2.4E1,5.822E3,8.07E2,6.5E1,2.4E1,2.511E3,3.311E3,6.43E2,1.64E2,8.58E2,1.653E3,2.979E3,3.32E2,4.65E2,1.78E2,9.2E1,7.2E1,1.059E3,5.94E2,5.53E2,2.426E3,3E1,3.02E2,1.6E1,4.49E2,5.5E1,1.23E2,3.47E2,2.06E2,2.405E3,2.1E1,2.94E2,8E0,4E0,1.2E1],"tree_param":{"num_deleted":"0","num_feature":"23","num_nodes":"41","size_leaf_vector":"1"}},{"base_weights":[6.0657965E-4,-5.70872E0,6.974727E2,-8.2443695E0,1.8114755E2,3.8978526E-1,6.6749626E-1,-1.057128E1,8.535137E0,1.03702284E-1,2.1532437E-1,-1.391015E1,-8.035708E0,3.9640715E0,2.6324415E1,-1.1918259E-2,-1.2872985E1,-8.553692E0,-3.3761706E0,1.6603359E0,9.939361E0,1.5692297E-2,2.4633737E-2,-1.0055446E-2,-8.924646E-3,-9.878896E0,-8.247669E0,-3.3977076E-3,-3.246951E0,4.3062052E-1,1.2773266E-3,4.9840743E-3,8.510089E-3,-7.679187E-3,-6.91944E-3,-6.198646E-3,-4.494472E-3,-2.4547395E-3,-1.5246099E-3,-1.7458077E-4,4.894858E-4],"categories":[],"categories_nodes":[],"categories_segments":[],"categories_sizes":[],"default_left":[0,0,0,0,0,0,0,0,0,0,0,0,0,0,0,0,0,0,0,0,0,0,0,0,0,0,0,0,0,0,0,0,0,0,0,0,0,0,0,0,0],"id":3,"left_children":[1,3,5,7,9,-1,-1,11,13,-1,-1,15,17,19,21,-1,23,25,27,29,31,-1,-1,-1,-1,33,35,-1,37,39,-1,-1,-1,-1,-1,-1,-1,-1,-1,-1,-1],"loss_changes":[2.6974718E7,3.1849695E6,1.419698E6,2.589546E5,3.691705E5,0E0,0E0,4.9185375E4,6.559894E4,0E0,0E0,4.9563125E3,7.964828E3,8.84847E3,5.1240625E3,0E0,7.006875E2,1.1270469E3,3.4951416E1,2.3773682E1,7.5443164E2,0E0,0E0,0E0,0E0,3.5773438E1,4.45625E1,0E0,2.9245605E0,2.6558788E0,0E0,0E0,0E0,0E0,0E0,0E0,0E0,0E0,0E0,0E0,0E0],"parents":[2147483647,0,0,1,1,2,2,3,3,4,4,7,7,8,8,11,11,12,12,13,13,14,14,16,16,17,17,18,18,19,19,20,20,25,25,26,26,28,28,29,29],"right_children":[2,4,6,8,10,-1,-1,12,14,-1,-1,16,18,20,22,-1,24,26,28,30,32,-1,-1,-1,-1,34,36,-1,38,40,-1,-1,-1,-1,-1,-1,-1,-1,-1,-1,-1],"split_conditions":[6.1696105E0,5.075174E0,6.6795993E0,2.944439E0,5.765191E0,3.8978526E-1,6.6749626E-1,2.1972246E0,3.583519E0,1.03702284E-1,2.1532437E-1,1.609438E0,2.6390574E0,3.2580965E0,3.9318256E0,-1.1918259E-2,1.9459101E0,2.3978953E0,2.7725887E0,3.0445225E0,3.3672957E0,1.5692297E-2,2.4633737E-2,-1.0055446E-2,-8.924646E-3,2.3025851E0,2.5649493E0,-3.3977076E-3,2.8332133E0,2.9957323E0,1.2773266E-3,4.9840743E-3,8.510089E-3,-7.679187E-3,-6.91944E-3,-6.198646E-3,-4.494472E-3,-2.4547395E-3,-1.5246099E-3,-1.7458077E-4,4.894858E-4],"split_indices":[22,22,22,22,22,0,0,22,22,0,0,22,22,22,22,0,22,22,22,22,22,0,0,0,0,22,22,0,22,22,0,0,0,0,0,0,0,0,0,0,0],"split_type":[0,0,0,0,0,0,0,0,0,0,0,0,0,0,0,0,0,0,0,0,0,0,0,0,0,0,0,0,0,0,0,0,0,0,0,0,0,0,0,0,0],"sum_hessian":[6.772E3,6.718E3,5.4E1,6.629E3,8.9E1,3E1,2.4E1,5.822E3,8.07E2,6.5E1,2.4E1,2.511E3,3.311E3,6.43E2,1.64E2,8.58E2,1.653E3,2.979E3,3.32E2,4.65E2,1.78E2,9.2E1,7.2E1,1.059E3,5.94E2,5.53E2,2.426E3,3E1,3.02E2,1.6E1,4.49E2,5.5E1,1.23E2,3.47E2,2.06E2,2.405E3,2.1E1,2.94E2,8E0,4E0,1.2E1],"tree_param":{"num_deleted":"0","num_feature":"23","num_nodes":"41","size_leaf_vector":"1"}},{"base_weights":[8.0826384E-4,-5.704392E0,6.969688E2,-8.238188E0,1.8101524E2,3.8950232E-1,6.670157E-1,-1.0563362E1,8.528804E0,1.0362569E-1,2.1516933E-1,-1.3899729E1,-8.029691E0,3.9611213E0,2.6304916E1,-1.1909329E-2,-1.2863341E1,-8.547285E0,-3.3736606E0,1.6590934E0,9.931981E0,1.5680656E-2,2.4615515E-2,-1.0047912E-2,-8.917964E-3,-9.871513E0,-8.2414875E0,-3.3952422E-3,-3.244529E0,4.303158E-1,1.2763703E-3,4.980403E-3,8.503757E-3,-7.6734447E-3,-6.9142757E-3,-6.1939983E-3,-4.4912547E-3,-2.4529046E-3,-1.523594E-3,-1.7447548E-4,4.8914645E-4],"categories":[],"categories_nodes":[],"categories_segments":[],"categories_sizes":[],"default_left":[0,0,0,0,0,0,0,0,0,0,0,0,0,0,0,0,0,0,0,0,0,0,0,0,0,0,0,0,0,0,0,0,0,0,0,0,0,0,0,0,0],"id":4,"left_children":[1,3,5,7,9,-1,-1,11,13,-1,-1,15,17,19,21,-1,23,25,27,29,31,-1,-1,-1,-1,33,35,-1,37,39,-1,-1,-1,-1,-1,-1,-1,-1,-1,-1,-1],"loss_changes":[2.693574E7,3.1803128E6,1.417688E6,2.5856844E5,3.68654E5,0E0,0E0,4.9111688E4,6.5501875E4,0E0,0E0,4.9488438E3,7.9528594E3,8.835356E3,5.116539E3,0E0,6.9965625E2,1.1253906E3,3.4906006E1,2.3737305E1,7.53291E2,0E0,0E0,0E0,0E0,3.571875E1,4.4453125E1,0E0,2.9162598E0,2.6523366E0,0E0,0E0,0E0,0E0,0E0,0E0,0E0,0E0,0E0,0E0,0E0],"parents":[2147483647,0,0,1,1,2,2,3,3,4,4,7,7,8,8,11,11,12,12,13,13,14,14,16,16,17,17,18,18,19,19,20,20,25,25,26,26,28,28,29,29],"right_children":[2,4,6,8,10,-1,-1,12,14,-1,-1,16,18,20,22,-1,24,26,28,30,32,-1,-1,-1,-1,34,36,-1,38,40,-1,-1,-1,-1,-1,-1,-1,-1,-1,-1,-1],"split_conditions":[6.1696105E0,5.075174E0,6.6795993E0,2.944439E0,5.765191E0,3.8950232E-1,6.670157E-1,2.1972246E0,3.583519E0,1.0362569E-1,2.1516933E-1,1.609438E0,2.6390574E0,3.2580965E0,3.9318256E0,-1.1909329E-2,1.9459101E0,2.3978953E0,2.7725887E0,3.0445225E0,3.3672957E0,1.5680656E-2,2.4615515E-2,-1.0047912E-2,-8.917964E-3,2.3025851E0,2.5649493E0,-3.3952422E-3,2.8332133E0,2.9957323E0,1.2763703E-3,4.980403E-3,8.503757E-3,-7.6734447E-3,-6.9142757E-3,-6.1939983E-3,-4.4912547E-3,-2.4529046E-3,-1.523594E-3,-1.7447548E-4,4.8914645E-4],"split_indices":[22,22,22,22,22,0,0,22,22,0,0,22,22,22,22,0,22,22,22,22,22,0,0,0,0,22,22,0,22,22,0,0,0,0,0,0,0,0,0,0,0],"split_type":[0,0,0,0,0,0,0,0,0,0,0,0,0,0,0,0,0,0,0,0,0,0,0,0,0,0,0,0,0,0,0,0,0,0,0,0,0,0,0,0,0],"sum_hessian":[6.772E3,6.718E3,5.4E1,6.629E3,8.9E1,3E1,2.4E1,5.822E3,8.07E2,6.5E1,2.4E1,2.511E3,3.311E3,6.43E2,1.64E2,8.58E2,1.653E3,2.979E3,3.32E2,4.65E2,1.78E2,9.2E1,7.2E1,1.059E3,5.94E2,5.53E2,2.426E3,3E1,3.02E2,1.6E1,4.49E2,5.5E1,1.23E2,3.47E2,2.06E2,2.405E3,2.1E1,2.94E2,8E0,4E0,1.2E1],"tree_param":{"num_deleted":"0","num_feature":"23","num_nodes":"41","size_leaf_vector":"1"}},{"base_weights":[1.0091708E-3,-5.700068E0,6.9646533E2,-8.23201E0,1.8088301E2,3.8921964E-1,6.665354E-1,-1.055545E1,8.522476E0,1.03549145E-1,2.150144E-1,-1.3889317E1,-8.02368E0,3.9581745E0,2.6285433E1,-1.1900408E-2,-1.2853705E1,-8.540883E0,-3.3711526E0,1.6578529E0,9.924608E0,1.5669022E-2,2.4597304E-2,-1.0040383E-2,-1.1881715E1,-9.864136E0,-8.2353115E0,-3.392778E-3,-3.2421088E0,4.30012E-1,1.2754154E-3,4.976735E-3,8.497431E-3,-9.161575E-3,-8.39418E-3,-7.667706E-3,-6.9091152E-3,-6.1893556E-3,-4.488039E-3,-2.4510713E-3,-1.522578E-3,-1.7437134E-4,4.8880844E-4],"categories":[],"categories_nodes":[],"categories_segments":[],"categories_sizes":[],"default_left":[0,0,0,0,0,0,0,0,0,0,0,0,0,0,0,0,0,0,0,0,0,0,0,0,0,0,0,0,0,0,0,0,0,0,0,0,0,0,0,0,0,0,0],"id":5,"left_children":[1,3,5,7,9,-1,-1,11,13,-1,-1,15,17,19,21,-1,23,25,27,29,31,-1,-1,-1,33,35,37,-1,39,41,-1,-1,-1,-1,-1,-1,-1,-1,-1,-1,-1,-1,-1],"loss_changes":[2.6896822E7,3.1756628E6,1.41568E6,2.581829E5,3.6813775E5,0E0,0E0,4.9038062E4,6.540495E4,0E0,0E0,4.9414062E3,7.9409062E3,8.822264E3,5.109008E3,0E0,6.9859375E2,1.1237344E3,3.4860596E1,2.3701172E1,7.5215234E2,0E0,0E0,0E0,1.875E-1,3.565625E1,4.4375E1,0E0,2.9084473E0,2.6488175E0,0E0,0E0,0E0,0E0,0E0,0E0,0E0,0E0,0E0,0E0,0E0,0E0,0E0],"parents":[2147483647,0,0,1,1,2,2,3,3,4,4,7,7,8,8,11,11,12,12,13,13,14,14,16,16,17,17,18,18,19,19,20,20,24,24,25,25,26,26,28,28,29,29],"right_children":[2,4,6,8,10,-1,-1,12,14,-1,-1,16,18,20,22,-1,24,26,28,30,32,-1,-1,-1,34,36,38,-1,40,42,-1,-1,-1,-1,-1,-1,-1,-1,-1,-1,-1,-1,-1],"split_conditions":[6.1696105E0,5.075174E0,6.6795993E0,2.944439E0,5.765191E0,3.8921964E-1,6.665354E-1,2.1972246E0,3.583519E0,1.03549145E-1,2.150144E-1,1.609438E0,2.6390574E0,3.2580965E0,3.9318256E0,-1.1900408E-2,1.9459101E0,2.3978953E0,2.7725887E0,3.0445225E0,3.3672957E0,1.5669022E-2,2.4597304E-2,-1.0040383E-2,2.0794415E0,2.3025851E0,2.5649493E0,-3.392778E-3,2.8332133E0,2.9957323E0,1.2754154E-3,4.976735E-3,8.497431E-3,-9.161575E-3,-8.39418E-3,-7.667706E-3,-6.9091152E-3,-6.1893556E-3,-4.488039E-3,-2.4510713E-3,-1.522578E-3,-1.7437134E-4,4.8880844E-4],"split_indices":[22,22,22,22,22,0,0,22,22,0,0,22,22,22,22,0,22,22,22,22,22,0,0,0,22,22,22,0,22,22,0,0,0,0,0,0,0,0,0,0,0,0,0],"split_type":[0,0,0,0,0,0,0,0,0,0,0,0,0,0,0,0,0,0,0,0,0,0,0,0,0,0,0,0,0,0,0,0,0,0,0,0,0,0,0,0,0,0,0],"sum_hessian":[6.772E3,6.718E3,5.4E1,6.629E3,8.9E1,3E1,2.4E1,5.822E3,8.07E2,6.5E1,2.4E1,2.511E3,3.311E3,6.43E2,1.64E2,8.58E2,1.653E3,2.979E3,3.32E2,4.65E2,1.78E2,9.2E1,7.2E1,1.059E3,5.94E2,5.53E2,2.426E3,3E1,3.02E2,1.6E1,4.49E2,5.5E1,1.23E2,3.89E2,2.05E2,3.47E2,2.06E2,2.405E3,2.1E1,2.94E2,8E0,4E0,1.2E1],"tree_param":{"num_deleted":"0","num_feature":"23","num_nodes":"43","size_leaf_vector":"1"}},{"base_weights":[1.2088008E-3,-5.695748E0,6.9596216E2,-8.225839E0,1.807509E2,3.8893718E-1,6.660555E-1,-1.0547546E1,8.516152E0,1.0347266E-1,2.148596E-1,-1.3878915E1,-8.017672E0,3.9552288E0,2.6265963E1,-1.1891493E-2,-1.2844082E1,-8.534486E0,-3.3686464E0,1.6566123E0,9.91724E0,1.5657395E-2,2.4579108E-2,-1.0032861E-2,-1.1872833E1,-9.856765E0,-8.229139E0,-3.3903155E-3,-3.2396905E0,4.2970815E-1,1.2744605E-3,4.9730693E-3,8.49111E-3,-9.154722E-3,-8.387914E-3,-7.6619717E-3,-6.903959E-3,-6.184716E-3,-4.484826E-3,-2.4492394E-3,-1.5215632E-3,-1.742672E-4,4.8847037E-4],"categories":[],"categories_nodes":[],"categories_segments":[],"categories_sizes":[],"default_left":[0,0,0,0,0,0,0,0,0,0,0,0,0,0,0,0,0,0,0,0,0,0,0,0,0,0,0,0,0,0,0,0,0,0,0,0,0,0,0,0,0,0,0],"id":6,"left_children":[1,3,5,7,9,-1,-1,11,13,-1,-1,15,17,19,21,-1,23,25,27,29,31,-1,-1,-1,33,35,37,-1,39,41,-1,-1,-1,-1,-1,-1,-1,-1,-1,-1,-1,-1,-1],"loss_changes":[2.6857958E7,3.1710202E6,1.413676E6,2.57798E5,3.6762225E5,0E0,0E0,4.8964625E4,6.530818E4,0E0,0E0,4.934E3,7.9289375E3,8.809188E3,5.1015E3,0E0,6.9753125E2,1.1220781E3,3.481494E1,2.366504E1,7.510176E2,0E0,0E0,0E0,1.796875E-1,3.5609375E1,4.43125E1,0E0,2.9003906E0,2.6452997E0,0E0,0E0,0E0,0E0,0E0,0E0,0E0,0E0,0E0,0E0,0E0,0E0,0E0],"parents":[2147483647,0,0,1,1,2,2,3,3,4,4,7,7,8,8,11,11,12,12,13,13,14,14,16,16,17,17,18,18,19,19,20,20,24,24,25,25,26,26,28,28,29,29],"right_children":[2,4,6,8,10,-1,-1,12,14,-1,-1,16,18,20,22,-1,24,26,28,30,32,-1,-1,-1,34,36,38,-1,40,42,-1,-1,-1,-1,-1,-1,-1,-1,-1,-1,-1,-1,-1],"split_conditions":[6.1696105E0,5.075174E0,6.6795993E0,2.944439E0,5.765191E0,3.8893718E-1,6.660555E-1,2.1972246E0,3.583519E0,1.0347266E-1,2.148596E-1,1.609438E0,2.6390574E0,3.2580965E0,3.9318256E0,-1.1891493E-2,1.9459101E0,2.3978953E0,2.7725887E0,3.0445225E0,3.3672957E0,1.5657395E-2,2.4579108E-2,-1.0032861E-2,2.0794415E0,2.3025851E0,2.5649493E0,-3.3903155E-3,2.8332133E0,2.9957323E0,1.2744605E-3,4.9730693E-3,8.49111E-3,-9.154722E-3,-8.387914E-3,-7.6619717E-3,-6.903959E-3,-6.184716E-3,-4.484826E-3,-2.4492394E-3,-1.5215632E-3,-1.742672E-4,4.8847037E-4],"split_indices":[22,22,22,22,22,0,0,22,22,0,0,22,22,22,22,0,22,22,22,22,22,0,0,0,22,22,22,0,22,22,0,0,0,0,0,0,0,0,0,0,0,0,0],"split_type":[0,0,0,0,0,0,0,0,0,0,0,0,0,0,0,0,0,0,0,0,0,0,0,0,0,0,0,0,0,0,0,0,0,0,0,0,0,0,0,0,0,0,0],"sum_hessian":[6.772E3,6.718E3,5.4E1,6.629E3,8.9E1,3E1,2.4E1,5.822E3,8.07E2,6.5E1,2.4E1,2.511E3,3.311E3,6.43E2,1.64E2,8.58E2,1.653E3,2.979E3,3.32E2,4.65E2,1.78E2,9.2E1,7.2E1,1.059E3,5.94E2,5.53E2,2.426E3,3E1,3.02E2,1.6E1,4.49E2,5.5E1,1.23E2,3.89E2,2.05E2,3.47E2,2.06E2,2.405E3,2.1E1,2.94E2,8E0,4E0,1.2E1],"tree_param":{"num_deleted":"0","num_feature":"23","num_nodes":"43","size_leaf_vector":"1"}},{"base_weights":[1.4084413E-3,-5.691431E0,6.9545935E2,-8.219671E0,1.8061887E2,3.8865483E-1,6.655759E-1,-1.0539648E1,8.509834E0,1.0339624E-1,2.147049E-1,-1.3868522E1,-8.011667E0,3.952286E0,2.6246506E1,-1.1882585E-2,-1.2834465E1,-8.528093E0,-3.366142E0,1.6553736E0,9.909878E0,1.564578E-2,2.4560926E-2,-1.0025343E-2,-1.1863957E1,-9.849398E0,-8.222971E0,-3.387854E-3,-3.237274E0,4.2940432E-1,1.273507E-3,4.9694064E-3,8.484793E-3,-9.147873E-3,-8.381654E-3,-7.6562418E-3,-6.8988055E-3,-6.180078E-3,-4.481616E-3,-2.4474089E-3,-1.5205486E-3,-1.7416305E-4,4.8813233E-4],"categories":[],"categories_nodes":[],"categories_segments":[],"categories_sizes":[],"default_left":[0,0,0,0,0,0,0,0,0,0,0,0,0,0,0,0,0,0,0,0,0,0,0,0,0,0,0,0,0,0,0,0,0,0,0,0,0,0,0,0,0,0,0],"id":7,"left_children":[1,3,5,7,9,-1,-1,11,13,-1,-1,15,17,19,21,-1,23,25,27,29,31,-1,-1,-1,33,35,37,-1,39,41,-1,-1,-1,-1,-1,-1,-1,-1,-1,-1,-1,-1,-1],"loss_changes":[2.6819148E7,3.166384E6,1.411676E6,2.5741356E5,3.6710775E5,0E0,0E0,4.8891375E4,6.5211543E4,0E0,0E0,4.926625E3,7.9169844E3,8.796134E3,5.093992E3,0E0,6.9646875E2,1.1204219E3,3.476953E1,2.3628662E1,7.4988086E2,0E0,0E0,0E0,1.796875E-1,3.554297E1,4.421875E1,0E0,2.8928223E0,2.6417854E0,0E0,0E0,0E0,0E0,0E0,0E0,0E0,0E0,0E0,0E0,0E0,0E0,0E0],"parents":[2147483647,0,0,1,1,2,2,3,3,4,4,7,7,8,8,11,11,12,12,13,13,14,14,16,16,17,17,18,18,19,19,20,20,24,24,25,25,26,26,28,28,29,29],"right_children":[2,4,6,8,10,-1,-1,12,14,-1,-1,16,18,20,22,-1,24,26,28,30,32,-1,-1,-1,34,36,38,-1,40,42,-1,-1,-1,-1,-1,-1,-1,-1,-1,-1,-1,-1,-1],"split_conditions":[6.1696105E0,5.075174E0,6.6795993E0,2.944439E0,5.765191E0,3.8865483E-1,6.655759E-1,2.1972246E0,3.583519E0,1.0339624E-1,2.147049E-1,1.609438E0,2.6390574E0,3.2580965E0,3.9318256E0,-1.1882585E-2,1.9459101E0,2.3978953E0,2.7725887E0,3.0445225E0,3.3672957E0,1.564578E-2,2.4560926E-2,-1.0025343E-2,2.0794415E0,2.3025851E0,2.5649493E0,-3.387854E-3,2.8332133E0,2.9957323E0,1.273507E-3,4.9694064E-3,8.484793E-3,-9.147873E-3,-8.381654E-3,-7.6562418E-3,-6.8988055E-3,-6.180078E-3,-4.481616E-3,-2.4474089E-3,-1.5205486E-3,-1.7416305E-4,4.8813233E-4],"split_indices":[22,22,22,22,22,0,0,22,22,0,0,22,22,22,22,0,22,22,22,22,22,0,0,0,22,22,22,0,22,22,0,0,0,0,0,0,0,0,0,0,0,0,0],"split_type":[0,0,0,0,0,0,0,0,0,0,0,0,0,0,0,0,0,0,0,0,0,0,0,0,0,0,0,0,0,0,0,0,0,0,0,0,0,0,0,0,0,0,0],"sum_hessian":[6.772E3,6.718E3,5.4E1,6.629E3,8.9E1,3E1,2.4E1,5.822E3,8.07E2,6.5E1,2.4E1,2.511E3,3.311E3,6.43E2,1.64E2,8.58E2,1.653E3,2.979E3,3.32E2,4.65E2,1.78E2,9.2E1,7.2E1,1.059E3,5.94E2,5.53E2,2.426E3,3E1,3.02E2,1.6E1,4.49E2,5.5E1,1.23E2,3.89E2,2.05E2,3.47E2,2.06E2,2.405E3,2.1E1,2.94E2,8E0,4E0,1.2E1],"tree_param":{"num_deleted":"0","num_feature":"23","num_nodes":"43","size_leaf_vector":"1"}},{"base_weights":[1.6076367E-3,-5.6871176E0,6.94957E2,-8.21351E0,1.8048694E2,3.8837275E-1,6.6509676E-1,-1.0531755E1,8.50352E0,1.0331986E-1,2.1455032E-1,-1.3858136E1,-8.005669E0,3.9493449E0,2.6227064E1,-1.1873682E-2,-1.2824857E1,-8.521706E0,-3.3636398E0,1.6541349E0,9.902521E0,1.5634172E-2,2.4542758E-2,-1.0017831E-2,-1.185509E1,-9.842037E0,-8.216808E0,-3.3853953E-3,-3.2348595E0,4.2910048E-1,1.2725536E-3,4.9657463E-3,8.478481E-3,-9.14103E-3,-8.375399E-3,-7.6505165E-3,-6.8936558E-3,-6.175445E-3,-4.4784066E-3,-2.4455797E-3,-1.5195351E-3,-1.7405892E-4,4.877943E-4],"categories":[],"categories_nodes":[],"categories_segments":[],"categories_sizes":[],"default_left":[0,0,0,0,0,0,0,0,0,0,0,0,0,0,0,0,0,0,0,0,0,0,0,0,0,0,0,0,0,0,0,0,0,0,0,0,0,0,0,0,0,0,0],"id":8,"left_children":[1,3,5,7,9,-1,-1,11,13,-1,-1,15,17,19,21,-1,23,25,27,29,31,-1,-1,-1,33,35,37,-1,39,41,-1,-1,-1,-1,-1,-1,-1,-1,-1,-1,-1,-1,-1],"loss_changes":[2.6780398E7,3.1617548E6,1.409676E6,2.5702978E5,3.6659375E5,0E0,0E0,4.8818125E4,6.511505E4,0E0,0E0,4.9192188E3,7.9051094E3,8.7831E3,5.086508E3,0E0,6.95375E2,1.1187812E3,3.4724365E1,2.3592651E1,7.487461E2,0E0,0E0,0E0,1.71875E-1,3.5492188E1,4.4125E1,0E0,2.8850098E0,2.6382725E0,0E0,0E0,0E0,0E0,0E0,0E0,0E0,0E0,0E0,0E0,0E0,0E0,0E0],"parents":[2147483647,0,0,1,1,2,2,3,3,4,4,7,7,8,8,11,11,12,12,13,13,14,14,16,16,17,17,18,18,19,19,20,20,24,24,25,25,26,26,28,28,29,29],"right_children":[2,4,6,8,10,-1,-1,12,14,-1,-1,16,18,20,22,-1,24,26,28,30,32,-1,-1,-1,34,36,38,-1,40,42,-1,-1,-1,-1,-1,-1,-1,-1,-1,-1,-1,-1,-1],"split_conditions":[6.1696105E0,5.075174E0,6.6795993E0,2.944439E0,5.765191E0,3.8837275E-1,6.6509676E-1,2.1972246E0,3.583519E0,1.0331986E-1,2.1455032E-1,1.609438E0,2.6390574E0,3.2580965E0,3.9318256E0,-1.1873682E-2,1.9459101E0,2.3978953E0,2.7725887E0,3.0445225E0,3.3672957E0,1.5634172E-2,2.4542758E-2,-1.0017831E-2,2.0794415E0,2.3025851E0,2.5649493E0,-3.3853953E-3,2.8332133E0,2.9957323E0,1.2725536E-3,4.9657463E-3,8.478481E-3,-9.14103E-3,-8.375399E-3,-7.6505165E-3,-6.8936558E-3,-6.175445E-3,-4.4784066E-3,-2.4455797E-3,-1.5195351E-3,-1.7405892E-4,4.877943E-4],"split_indices":[22,22,22,22,22,0,0,22,22,0,0,22,22,22,22,0,22,22,22,22,22,0,0,0,22,22,22,0,22,22,0,0,0,0,0,0,0,0,0,0,0,0,0],"split_type":[0,0,0,0,0,0,0,0,0,0,0,0,0,0,0,0,0,0,0,0,0,0,0,0,0,0,0,0,0,0,0,0,0,0,0,0,0,0,0,0,0,0,0],"sum_hessian":[6.772E3,6.718E3,5.4E1,6.629E3,8.9E1,3E1,2.4E1,5.822E3,8.07E2,6.5E1,2.4E1,2.511E3,3.311E3,6.43E2,1.64E2,8.58E2,1.653E3,2.979E3,3.32E2,4.65E2,1.78E2,9.2E1,7.2E1,1.059E3,5.94E2,5.53E2,2.426E3,3E1,3.02E2,1.6E1,4.49E2,5.5E1,1.23E2,3.89E2,2.05E2,3.47E2,2.06E2,2.405E3,2.1E1,2.94E2,8E0,4E0,1.2E1],"tree_param":{"num_deleted":"0","num_feature":"23","num_nodes":"43","size_leaf_vector":"1"}},{"base_weights":[1.8064898E-3,-5.6828074E0,6.944549E2,-8.207352E0,1.803551E2,3.880909E-1,6.646179E-1,-1.0523869E1,8.4972105E0,1.0324355E-1,2.1439582E-1,-1.3847758E1,-7.9996743E0,3.9464066E0,2.6207638E1,-1.1864788E-2,-1.2815254E1,-8.515323E0,-3.3611395E0,1.6528981E0,9.895169E0,1.5622572E-2,2.4524607E-2,-1.0010325E-2,-1.1846228E1,-9.834682E0,-8.2106495E0,-3.382938E-3,-3.2324467E0,4.2879665E-1,1.2716016E-3,4.962089E-3,8.4721735E-3,-9.134191E-3,-8.369148E-3,-7.644795E-3,-6.8885107E-3,-6.1708153E-3,-4.4752005E-3,-2.4437518E-3,-1.5185216E-3,-1.7395477E-4,4.8745627E-4],"categories":[],"categories_nodes":[],"categories_segments":[],"categories_sizes":[],"default_left":[0,0,0,0,0,0,0,0,0,0,0,0,0,0,0,0,0,0,0,0,0,0,0,0,0,0,0,0,0,0,0,0,0,0,0,0,0,0,0,0,0,0,0],"id":9,"left_children":[1,3,5,7,9,-1,-1,11,13,-1,-1,15,17,19,21,-1,23,25,27,29,31,-1,-1,-1,33,35,37,-1,39,41,-1,-1,-1,-1,-1,-1,-1,-1,-1,-1,-1,-1,-1],"loss_changes":[2.6741702E7,3.1571322E6,1.407682E6,2.566466E5,3.6608025E5,0E0,0E0,4.8745062E4,6.50187E4,0E0,0E0,4.9118125E3,7.893203E3,8.770084E3,5.0790312E3,0E0,6.943125E2,1.117125E3,3.467871E1,2.355664E1,7.476172E2,0E0,0E0,0E0,1.640625E-1,3.5433594E1,4.4046875E1,0E0,2.8769531E0,2.6347625E0,0E0,0E0,0E0,0E0,0E0,0E0,0E0,0E0,0E0,0E0,0E0,0E0,0E0],"parents":[2147483647,0,0,1,1,2,2,3,3,4,4,7,7,8,8,11,11,12,12,13,13,14,14,16,16,17,17,18,18,19,19,20,20,24,24,25,25,26,26,28,28,29,29],"right_children":[2,4,6,8,10,-1,-1,12,14,-1,-1,16,18,20,22,-1,24,26,28,30,32,-1,-1,-1,34,36,38,-1,40,42,-1,-1,-1,-1,-1,-1,-1,-1,-1,-1,-1,-1,-1],"split_conditions":[6.1696105E0,5.075174E0,6.6795993E0,2.944439E0,5.765191E0,3.880909E-1,6.646179E-1,2.1972246E0,3.583519E0,1.0324355E-1,2.1439582E-1,1.609438E0,2.6390574E0,3.2580965E0,3.9318256E0,-1.1864788E-2,1.9459101E0,2.3978953E0,2.7725887E0,3.0445225E0,3.3672957E0,1.5622572E-2,2.4524607E-2,-1.0010325E-2,2.0794415E0,2.3025851E0,2.5649493E0,-3.382938E-3,2.8332133E0,2.9957323E0,1.2716016E-3,4.962089E-3,8.4721735E-3,-9.134191E-3,-8.369148E-3,-7.644795E-3,-6.8885107E-3,-6.1708153E-3,-4.4752005E-3,-2.4437518E-3,-1.5185216E-3,-1.7395477E-4,4.8745627E-4],"split_indices":[22,22,22,22,22,0,0,22,22,0,0,22,22,22,22,0,22,22,22,22,22,0,0,0,22,22,22,0,22,22,0,0,0,0,0,0,0,0,0,0,0,0,0],"split_type":[0,0,0,0,0,0,0,0,0,0,0,0,0,0,0,0,0,0,0,0,0,0,0,0,0,0,0,0,0,0,0,0,0,0,0,0,0,0,0,0,0,0,0],"sum_hessian":[6.772E3,6.718E3,5.4E1,6.629E3,8.9E1,3E1,2.4E1,5.822E3,8.07E2,6.5E1,2.4E1,2.511E3,3.311E3,6.43E2,1.64E2,8.58E2,1.653E3,2.979E3,3.32E2,4.65E2,1.78E2,9.2E1,7.2E1,1.059E3,5.94E2,5.53E2,2.426E3,3E1,3.02E2,1.6E1,4.49E2,5.5E1,1.23E2,3.89E2,2.05E2,3.47E2,2.06E2,2.405E3,2.1E1,2.94E2,8E0,4E0,1.2E1],"tree_param":{"num_deleted":"0","num_feature":"23","num_nodes":"43","size_leaf_vector":"1"}},{"base_weights":[2.0046318E-3,-5.6785007E0,6.939532E2,-8.2012E0,1.8022337E2,3.878092E-1,6.6413933E-1,-1.0515988E1,8.490906E0,1.0316729E-1,2.1424146E-1,-1.3837388E1,-7.993685E0,3.9434695E0,2.6188227E1,-1.1855899E-2,-1.280566E1,-8.5089445E0,-3.3586411E0,1.6516612E0,9.887823E0,1.561098E-2,2.4506465E-2,-1.0002825E-2,-1.1837372E1,-9.8273325E0,-8.204496E0,-3.380482E-3,-3.230036E0,4.284928E-1,1.2706495E-3,4.9584336E-3,8.46587E-3,-9.127358E-3,-8.362901E-3,-7.639078E-3,-6.883369E-3,-6.166189E-3,-4.4719973E-3,-2.4419257E-3,-1.5175095E-3,-1.7385063E-4,4.8711823E-4],"categories":[],"categories_nodes":[],"categories_segments":[],"categories_sizes":[],"default_left":[0,0,0,0,0,0,0,0,0,0,0,0,0,0,0,0,0,0,0,0,0,0,0,0,0,0,0,0,0,0,0,0,0,0,0,0,0,0,0,0,0,0,0],"id":10,"left_children":[1,3,5,7,9,-1,-1,11,13,-1,-1,15,17,19,21,-1,23,25,27,29,31,-1,-1,-1,33,35,37,-1,39,41,-1,-1,-1,-1,-1,-1,-1,-1,-1,-1,-1,-1,-1],"loss_changes":[2.670306E7,3.1525165E6,1.405688E6,2.5626394E5,3.65568E5,0E0,0E0,4.8672E4,6.4922496E4,0E0,0E0,4.9044375E3,7.8813125E3,8.757088E3,5.0715625E3,0E0,6.9325E2,1.1154844E3,3.4633545E1,2.3520752E1,7.464844E2,0E0,0E0,0E0,1.5625E-1,3.5378906E1,4.3953125E1,0E0,2.8691406E0,2.6312544E0,0E0,0E0,0E0,0E0,0E0,0E0,0E0,0E0,0E0,0E0,0E0,0E0,0E0],"parents":[2147483647,0,0,1,1,2,2,3,3,4,4,7,7,8,8,11,11,12,12,13,13,14,14,16,16,17,17,18,18,19,19,20,20,24,24,25,25,26,26,28,28,29,29],"right_children":[2,4,6,8,10,-1,-1,12,14,-1,-1,16,18,20,22,-1,24,26,28,30,32,-1,-1,-1,34,36,38,-1,40,42,-1,-1,-1,-1,-1,-1,-1,-1,-1,-1,-1,-1,-1],"split_conditions":[6.1696105E0,5.075174E0,6.6795993E0,2.944439E0,5.765191E0,3.878092E-1,6.6413933E-1,2.1972246E0,3.583519E0,1.0316729E-1,2.1424146E-1,1.609438E0,2.6390574E0,3.2580965E0,3.9318256E0,-1.1855899E-2,1.9459101E0,2.3978953E0,2.7725887E0,3.0445225E0,3.3672957E0,1.561098E-2,2.4506465E-2,-1.0002825E-2,2.0794415E0,2.3025851E0,2.5649493E0,-3.380482E-3,2.8332133E0,2.9957323E0,1.2706495E-3,4.9584336E-3,8.46587E-3,-9.127358E-3,-8.362901E-3,-7.639078E-3,-6.883369E-3,-6.166189E-3,-4.4719973E-3,-2.4419257E-3,-1.5175095E-3,-1.7385063E-4,4.8711823E-4],"split_indices":[22,22,22,22,22,0,0,22,22,0,0,22,22,22,22,0,22,22,22,22,22,0,0,0,22,22,22,0,22,22,0,0,0,0,0,0,0,0,0,0,0,0,0],"split_type":[0,0,0,0,0,0,0,0,0,0,0,0,0,0,0,0,0,0,0,0,0,0,0,0,0,0,0,0,0,0,0,0,0,0,0,0,0,0,0,0,0,0,0],"sum_hessian":[6.772E3,6.718E3,5.4E1,6.629E3,8.9E1,3E1,2.4E1,5.822E3,8.07E2,6.5E1,2.4E1,2.511E3,3.311E3,6.43E2,1.64E2,8.58E2,1.653E3,2.979E3,3.32E2,4.65E2,1.78E2,9.2E1,7.2E1,1.059E3,5.94E2,5.53E2,2.426E3,3E1,3.02E2,1.6E1,4.49E2,5.5E1,1.23E2,3.89E2,2.05E2,3.47E2,2.06E2,2.405E3,2.1E1,2.94E2,8E0,4E0,1.2E1],"tree_param":{"num_deleted":"0","num_feature":"23","num_nodes":"43","size_leaf_vector":"1"}},{"base_weights":[2.2027737E-3,-5.674197E0,6.9345184E2,-8.195051E0,1.8009172E2,3.875277E-1,6.636612E-1,-1.0508114E1,8.484606E0,1.0309108E-1,2.1408722E-1,-1.3827025E1,-7.987699E0,3.9405353E0,2.6168827E1,-1.1847017E-2,-1.2796073E1,-8.502571E0,-3.3561447E0,1.6504261E0,9.880482E0,1.5599397E-2,2.4488337E-2,-9.99533E-3,-1.1828524E1,-9.819988E0,-8.198347E0,-3.3780292E-3,-3.227627E0,4.2819035E-1,1.269699E-3,4.954781E-3,8.459572E-3,-9.12053E-3,-8.356659E-3,-7.633365E-3,-6.878231E-3,-6.1615664E-3,-4.4687954E-3,-2.4401008E-3,-1.5164973E-3,-1.7374649E-4,4.867815E-4],"categories":[],"categories_nodes":[],"categories_segments":[],"categories_sizes":[],"default_left":[0,0,0,0,0,0,0,0,0,0,0,0,0,0,0,0,0,0,0,0,0,0,0,0,0,0,0,0,0,0,0,0,0,0,0,0,0,0,0,0,0,0,0],"id":11,"left_children":[1,3,5,7,9,-1,-1,11,13,-1,-1,15,17,19,21,-1,23,25,27,29,31,-1,-1,-1,33,35,37,-1,39,41,-1,-1,-1,-1,-1,-1,-1,-1,-1,-1,-1,-1,-1],"loss_changes":[2.6664476E7,3.1479075E6,1.403698E6,2.5588184E5,3.6505625E5,0E0,0E0,4.8599188E4,6.482643E4,0E0,0E0,4.8970938E3,7.8694688E3,8.7441045E3,5.0641094E3,0E0,6.921875E2,1.1138438E3,3.458838E1,2.3484863E1,7.453594E2,0E0,0E0,0E0,1.484375E-1,3.532422E1,4.3859375E1,0E0,2.8613281E0,2.627759E0,0E0,0E0,0E0,0E0,0E0,0E0,0E0,0E0,0E0,0E0,0E0,0E0,0E0],"parents":[2147483647,0,0,1,1,2,2,3,3,4,4,7,7,8,8,11,11,12,12,13,13,14,14,16,16,17,17,18,18,19,19,20,20,24,24,25,25,26,26,28,28,29,29],"right_children":[2,4,6,8,10,-1,-1,12,14,-1,-1,16,18,20,22,-1,24,26,28,30,32,-1,-1,-1,34,36,38,-1,40,42,-1,-1,-1,-1,-1,-1,-1,-1,-1,-1,-1,-1,-1],"split_conditions":[6.1696105E0,5.075174E0,6.6795993E0,2.944439E0,5.765191E0,3.875277E-1,6.636612E-1,2.1972246E0,3.583519E0,1.0309108E-1,2.1408722E-1,1.609438E0,2.6390574E0,3.2580965E0,3.9318256E0,-1.1847017E-2,1.9459101E0,2.3978953E0,2.7725887E0,3.0445225E0,3.3672957E0,1.5599397E-2,2.4488337E-2,-9.99533E-3,2.0794415E0,2.3025851E0,2.5649493E0,-3.3780292E-3,2.8332133E0,2.9957323E0,1.269699E-3,4.954781E-3,8.459572E-3,-9.12053E-3,-8.356659E-3,-7.633365E-3,-6.878231E-3,-6.1615664E-3,-4.4687954E-3,-2.4401008E-3,-1.5164973E-3,-1.7374649E-4,4.867815E-4],"split_indices":[22,22,22,22,22,0,0,22,22,0,0,22,22,22,22,0,22,22,22,22,22,0,0,0,22,22,22,0,22,22,0,0,0,0,0,0,0,0,0,0,0,0,0],"split_type":[0,0,0,0,0,0,0,0,0,0,0,0,0,0,0,0,0,0,0,0,0,0,0,0,0,0,0,0,0,0,0,0,0,0,0,0,0,0,0,0,0,0,0],"sum_hessian":[6.772E3,6.718E3,5.4E1,6.629E3,8.9E1,3E1,2.4E1,5.822E3,8.07E2,6.5E1,2.4E1,2.511E3,3.311E3,6.43E2,1.64E2,8.58E2,1.653E3,2.979E3,3.32E2,4.65E2,1.78E2,9.2E1,7.2E1,1.059E3,5.94E2,5.53E2,2.426E3,3E1,3.02E2,1.6E1,4.49E2,5.5E1,1.23E2,3.89E2,2.05E2,3.47E2,2.06E2,2.405E3,2.1E1,2.94E2,8E0,4E0,1.2E1],"tree_param":{"num_deleted":"0","num_feature":"23","num_nodes":"43","size_leaf_vector":"1"}},{"base_weights":[2.4002206E-3,-5.6698976E0,6.9295087E2,-8.188908E0,1.7996019E2,3.8724646E-1,6.6318333E-1,-1.0500246E1,8.47831E0,1.0301493E-1,2.1393308E-1,-1.3816671E1,-7.9817185E0,3.9376028E0,2.6149443E1,-1.1838143E-2,-1.2786493E1,-8.496203E0,-3.35365E0,1.6491911E0,9.873146E0,1.5587823E-2,2.4470221E-2,-9.987841E-3,-1.1819681E1,-9.81265E0,-8.1922035E0,-3.3755773E-3,-3.22522E0,4.2788786E-1,1.2687483E-3,4.9511306E-3,8.453279E-3,-9.113708E-3,-8.350422E-3,-7.6276567E-3,-6.8730977E-3,-6.156948E-3,-4.465596E-3,-2.4382775E-3,-1.5154864E-3,-1.7364234E-4,4.8644477E-4],"categories":[],"categories_nodes":[],"categories_segments":[],"categories_sizes":[],"default_left":[0,0,0,0,0,0,0,0,0,0,0,0,0,0,0,0,0,0,0,0,0,0,0,0,0,0,0,0,0,0,0,0,0,0,0,0,0,0,0,0,0,0,0],"id":12,"left_children":[1,3,5,7,9,-1,-1,11,13,-1,-1,15,17,19,21,-1,23,25,27,29,31,-1,-1,-1,33,35,37,-1,39,41,-1,-1,-1,-1,-1,-1,-1,-1,-1,-1,-1,-1,-1],"loss_changes":[2.662595E7,3.1433052E6,1.401708E6,2.5550034E5,3.6454525E5,0E0,0E0,4.8526438E4,6.4730508E4,0E0,0E0,4.8896875E3,7.8576094E3,8.731146E3,5.0566797E3,0E0,6.91125E2,1.1121875E3,3.4543213E1,2.3448853E1,7.442324E2,0E0,0E0,0E0,1.40625E-1,3.5265625E1,4.3796875E1,0E0,2.8535156E0,2.6242661E0,0E0,0E0,0E0,0E0,0E0,0E0,0E0,0E0,0E0,0E0,0E0,0E0,0E0],"parents":[2147483647,0,0,1,1,2,2,3,3,4,4,7,7,8,8,11,11,12,12,13,13,14,14,16,16,17,17,18,18,19,19,20,20,24,24,25,25,26,26,28,28,29,29],"right_children":[2,4,6,8,10,-1,-1,12,14,-1,-1,16,18,20,22,-1,24,26,28,30,32,-1,-1,-1,34,36,38,-1,40,42,-1,-1,-1,-1,-1,-1,-1,-1,-1,-1,-1,-1,-1],"split_conditions":[6.1696105E0,5.075174E0,6.6795993E0,2.944439E0,5.765191E0,3.8724646E-1,6.6318333E-1,2.1972246E0,3.583519E0,1.0301493E-1,2.1393308E-1,1.609438E0,2.6390574E0,3.2580965E0,3.9318256E0,-1.1838143E-2,1.9459101E0,2.3978953E0,2.7725887E0,3.0445225E0,3.3672957E0,1.5587823E-2,2.4470221E-2,-9.987841E-3,2.0794415E0,2.3025851E0,2.5649493E0,-3.3755773E-3,2.8332133E0,2.9957323E0,1.2687483E-3,4.9511306E-3,8.453279E-3,-9.113708E-3,-8.350422E-3,-7.6276567E-3,-6.8730977E-3,-6.156948E-3,-4.465596E-3,-2.4382775E-3,-1.5154864E-3,-1.7364234E-4,4.8644477E-4],"split_indices":[22,22,22,22,22,0,0,22,22,0,0,22,22,22,22,0,22,22,22,22,22,0,0,0,22,22,22,0,22,22,0,0,0,0,0,0,0,0,0,0,0,0,0],"split_type":[0,0,0,0,0,0,0,0,0,0,0,0,0,0,0,0,0,0,0,0,0,0,0,0,0,0,0,0,0,0,0,0,0,0,0,0,0,0,0,0,0,0,0],"sum_hessian":[6.772E3,6.718E3,5.4E1,6.629E3,8.9E1,3E1,2.4E1,5.822E3,8.07E2,6.5E1,2.4E1,2.511E3,3.311E3,6.43E2,1.64E2,8.58E2,1.653E3,2.979E3,3.32E2,4.65E2,1.78E2,9.2E1,7.2E1,1.059E3,5.94E2,5.53E2,2.426E3,3E1,3.02E2,1.6E1,4.49E2,5.5E1,1.23E2,3.89E2,2.05E2,3.47E2,2.06E2,2.405E3,2.1E1,2.94E2,8E0,4E0,1.2E1],"tree_param":{"num_deleted":"0","num_feature":"23","num_nodes":"43","size_leaf_vector":"1"}},{"base_weights":[2.5979E-3,-5.6656003E0,6.9245026E2,-8.182768E0,1.7982874E2,3.869654E-1,6.6270584E-1,-1.0492383E1,8.472019E0,1.0293884E-1,2.1377902E-1,-1.3806324E1,-7.9757423E0,3.934673E0,2.6130074E1,-1.1829275E-2,-1.2776919E1,-8.48984E0,-3.3511574E0,1.647958E0,9.865816E0,1.5576257E-2,2.4452118E-2,-9.980356E-3,-1.1810846E1,-9.805317E0,-8.186064E0,-3.3731272E-3,-3.2228146E0,4.2758536E-1,1.2677992E-3,4.9474835E-3,8.4469905E-3,-9.10689E-3,-8.34419E-3,-7.621953E-3,-6.8679685E-3,-6.152332E-3,-4.462399E-3,-2.4364553E-3,-1.5144756E-3,-1.7353821E-4,4.8610807E-4],"categories":[],"categories_nodes":[],"categories_segments":[],"categories_sizes":[],"default_left":[0,0,0,0,0,0,0,0,0,0,0,0,0,0,0,0,0,0,0,0,0,0,0,0,0,0,0,0,0,0,0,0,0,0,0,0,0,0,0,0,0,0,0],"id":13,"left_children":[1,3,5,7,9,-1,-1,11,13,-1,-1,15,17,19,21,-1,23,25,27,29,31,-1,-1,-1,33,35,37,-1,39,41,-1,-1,-1,-1,-1,-1,-1,-1,-1,-1,-1,-1,-1],"loss_changes":[2.6587476E7,3.1387098E6,1.399724E6,2.551194E5,3.640345E5,0E0,0E0,4.8453688E4,6.4634723E4,0E0,0E0,4.8824062E3,7.8457812E3,8.718207E3,5.0492344E3,0E0,6.9003125E2,1.1105781E3,3.4498047E1,2.3413086E1,7.431074E2,0E0,0E0,0E0,1.40625E-1,3.5203125E1,4.3703125E1,0E0,2.8457031E0,2.6207755E0,0E0,0E0,0E0,0E0,0E0,0E0,0E0,0E0,0E0,0E0,0E0,0E0,0E0],"parents":[2147483647,0,0,1,1,2,2,3,3,4,4,7,7,8,8,11,11,12,12,13,13,14,14,16,16,17,17,18,18,19,19,20,20,24,24,25,25,26,26,28,28,29,29],"right_children":[2,4,6,8,10,-1,-1,12,14,-1,-1,16,18,20,22,-1,24,26,28,30,32,-1,-1,-1,34,36,38,-1,40,42,-1,-1,-1,-1,-1,-1,-1,-1,-1,-1,-1,-1,-1],"split_conditions":[6.1696105E0,5.075174E0,6.6795993E0,2.944439E0,5.765191E0,3.869654E-1,6.6270584E-1,2.1972246E0,3.583519E0,1.0293884E-1,2.1377902E-1,1.609438E0,2.6390574E0,3.2580965E0,3.9318256E0,-1.1829275E-2,1.9459101E0,2.3978953E0,2.7725887E0,3.0445225E0,3.3672957E0,1.5576257E-2,2.4452118E-2,-9.980356E-3,2.0794415E0,2.3025851E0,2.5649493E0,-3.3731272E-3,2.8332133E0,2.9957323E0,1.2677992E-3,4.9474835E-3,8.4469905E-3,-9.10689E-3,-8.34419E-3,-7.621953E-3,-6.8679685E-3,-6.152332E-3,-4.462399E-3,-2.4364553E-3,-1.5144756E-3,-1.7353821E-4,4.8610807E-4],"split_indices":[22,22,22,22,22,0,0,22,22,0,0,22,22,22,22,0,22,22,22,22,22,0,0,0,22,22,22,0,22,22,0,0,0,0,0,0,0,0,0,0,0,0,0],"split_type":[0,0,0,0,0,0,0,0,0,0,0,0,0,0,0,0,0,0,0,0,0,0,0,0,0,0,0,0,0,0,0,0,0,0,0,0,0,0,0,0,0,0,0],"sum_hessian":[6.772E3,6.718E3,5.4E1,6.629E3,8.9E1,3E1,2.4E1,5.822E3,8.07E2,6.5E1,2.4E1,2.511E3,3.311E3,6.43E2,1.64E2,8.58E2,1.653E3,2.979E3,3.32E2,4.65E2,1.78E2,9.2E1,7.2E1,1.059E3,5.94E2,5.53E2,2.426E3,3E1,3.02E2,1.6E1,4.49E2,5.5E1,1.23E2,3.89E2,2.05E2,3.47E2,2.06E2,2.405E3,2.1E1,2.94E2,8E0,4E0,1.2E1],"tree_param":{"num_deleted":"0","num_feature":"23","num_nodes":"43","size_leaf_vector":"1"}},{"base_weights":[2.7956236E-3,-5.661306E0,6.9194995E2,-8.176633E0,1.7969739E2,3.866845E-1,6.622287E-1,-1.0484526E1,8.465734E0,1.0286282E-1,2.136251E-1,-1.3795984E1,-7.96977E0,3.9317448E0,2.611072E1,-1.1820412E-2,-1.2767352E1,-8.48348E0,-3.348667E0,1.6467248E0,9.858491E0,1.55647015E-2,2.4434032E-2,-9.972878E-3,-1.1802017E1,-9.797989E0,-8.179928E0,-3.3706794E-3,-3.2204113E0,4.272829E-1,1.2668499E-3,4.943839E-3,8.440705E-3,-9.100077E-3,-8.3379615E-3,-7.6162526E-3,-6.8628425E-3,-6.147719E-3,-4.459204E-3,-2.4346348E-3,-1.513466E-3,-1.7343408E-4,4.8577134E-4],"categories":[],"categories_nodes":[],"categories_segments":[],"categories_sizes":[],"default_left":[0,0,0,0,0,0,0,0,0,0,0,0,0,0,0,0,0,0,0,0,0,0,0,0,0,0,0,0,0,0,0,0,0,0,0,0,0,0,0,0,0,0,0],"id":14,"left_children":[1,3,5,7,9,-1,-1,11,13,-1,-1,15,17,19,21,-1,23,25,27,29,31,-1,-1,-1,33,35,37,-1,39,41,-1,-1,-1,-1,-1,-1,-1,-1,-1,-1,-1,-1,-1],"loss_changes":[2.6549058E7,3.134121E6,1.397742E6,2.54739E5,3.63525E5,0E0,0E0,4.8381125E4,6.4539094E4,0E0,0E0,4.8750938E3,7.834E3,8.705287E3,5.0418203E3,0E0,6.89E2,1.1089375E3,3.445288E1,2.337732E1,7.419844E2,0E0,0E0,0E0,1.40625E-1,3.5152344E1,4.3609375E1,0E0,2.8378906E0,2.617287E0,0E0,0E0,0E0,0E0,0E0,0E0,0E0,0E0,0E0,0E0,0E0,0E0,0E0],"parents":[2147483647,0,0,1,1,2,2,3,3,4,4,7,7,8,8,11,11,12,12,13,13,14,14,16,16,17,17,18,18,19,19,20,20,24,24,25,25,26,26,28,28,29,29],"right_children":[2,4,6,8,10,-1,-1,12,14,-1,-1,16,18,20,22,-1,24,26,28,30,32,-1,-1,-1,34,36,38,-1,40,42,-1,-1,-1,-1,-1,-1,-1,-1,-1,-1,-1,-1,-1],"split_conditions":[6.1696105E0,5.075174E0,6.6795993E0,2.944439E0,5.765191E0,3.866845E-1,6.622287E-1,2.1972246E0,3.583519E0,1.0286282E-1,2.136251E-1,1.609438E0,2.6390574E0,3.2580965E0,3.9318256E0,-1.1820412E-2,1.9459101E0,2.3978953E0,2.7725887E0,3.0445225E0,3.3672957E0,1.55647015E-2,2.4434032E-2,-9.972878E-3,2.0794415E0,2.3025851E0,2.5649493E0,-3.3706794E-3,2.8332133E0,2.9957323E0,1.2668499E-3,4.943839E-3,8.440705E-3,-9.100077E-3,-8.3379615E-3,-7.6162526E-3,-6.8628425E-3,-6.147719E-3,-4.459204E-3,-2.4346348E-3,-1.513466E-3,-1.7343408E-4,4.8577134E-4],"split_indices":[22,22,22,22,22,0,0,22,22,0,0,22,22,22,22,0,22,22,22,22,22,0,0,0,22,22,22,0,22,22,0,0,0,0,0,0,0,0,0,0,0,0,0],"split_type":[0,0,0,0,0,0,0,0,0,0,0,0,0,0,0,0,0,0,0,0,0,0,0,0,0,0,0,0,0,0,0,0,0,0,0,0,0,0,0,0,0,0,0],"sum_hessian":[6.772E3,6.718E3,5.4E1,6.629E3,8.9E1,3E1,2.4E1,5.822E3,8.07E2,6.5E1,2.4E1,2.511E3,3.311E3,6.43E2,1.64E2,8.58E2,1.653E3,2.979E3,3.32E2,4.65E2,1.78E2,9.2E1,7.2E1,1.059E3,5.94E2,5.53E2,2.426E3,3E1,3.02E2,1.6E1,4.49E2,5.5E1,1.23E2,3.89E2,2.05E2,3.47E2,2.06E2,2.405E3,2.1E1,2.94E2,8E0,4E0,1.2E1],"tree_param":{"num_deleted":"0","num_feature":"23","num_nodes":"43","size_leaf_vector":"1"}},{"base_weights":[2.9926142E-3,-5.6570153E0,6.914501E2,-8.170504E0,1.7956613E2,3.8640386E-1,6.6175187E-1,-1.0476674E1,8.459453E0,1.0278684E-1,2.134713E-1,-1.3785653E1,-7.963803E0,3.9288197E0,2.609138E1,-1.1811558E-2,-1.2757793E1,-8.477126E0,-3.346178E0,1.6454935E0,9.851172E0,1.5553153E-2,2.4415959E-2,-9.965405E-3,-1.1793195E1,-9.790667E0,-8.173798E0,-3.3682333E-3,-3.21801E0,4.269804E-1,1.2659023E-3,4.940197E-3,8.434426E-3,-9.09327E-3,-8.331738E-3,-7.610557E-3,-6.8577197E-3,-6.1431103E-3,-4.4560116E-3,-2.4328157E-3,-1.5124576E-3,-1.7332993E-4,4.854346E-4],"categories":[],"categories_nodes":[],"categories_segments":[],"categories_sizes":[],"default_left":[0,0,0,0,0,0,0,0,0,0,0,0,0,0,0,0,0,0,0,0,0,0,0,0,0,0,0,0,0,0,0,0,0,0,0,0,0,0,0,0,0,0,0],"id":15,"left_children":[1,3,5,7,9,-1,-1,11,13,-1,-1,15,17,19,21,-1,23,25,27,29,31,-1,-1,-1,33,35,37,-1,39,41,-1,-1,-1,-1,-1,-1,-1,-1,-1,-1,-1,-1,-1],"loss_changes":[2.6510698E7,3.129539E6,1.395762E6,2.5435925E5,3.63016E5,0E0,0E0,4.8308688E4,6.4443594E4,0E0,0E0,4.86775E3,7.822172E3,8.692385E3,5.0344062E3,0E0,6.879375E2,1.1073125E3,3.4407715E1,2.3341675E1,7.408633E2,0E0,0E0,0E0,1.328125E-1,3.509375E1,4.353125E1,0E0,2.8303223E0,2.6138008E0,0E0,0E0,0E0,0E0,0E0,0E0,0E0,0E0,0E0,0E0,0E0,0E0,0E0],"parents":[2147483647,0,0,1,1,2,2,3,3,4,4,7,7,8,8,11,11,12,12,13,13,14,14,16,16,17,17,18,18,19,19,20,20,24,24,25,25,26,26,28,28,29,29],"right_children":[2,4,6,8,10,-1,-1,12,14,-1,-1,16,18,20,22,-1,24,26,28,30,32,-1,-1,-1,34,36,38,-1,40,42,-1,-1,-1,-1,-1,-1,-1,-1,-1,-1,-1,-1,-1],"split_conditions":[6.1696105E0,5.075174E0,6.6795993E0,2.944439E0,5.765191E0,3.8640386E-1,6.6175187E-1,2.1972246E0,3.583519E0,1.0278684E-1,2.134713E-1,1.609438E0,2.6390574E0,3.2580965E0,3.9318256E0,-1.1811558E-2,1.9459101E0,2.3978953E0,2.7725887E0,3.0445225E0,3.3672957E0,1.5553153E-2,2.4415959E-2,-9.965405E-3,2.0794415E0,2.3025851E0,2.5649493E0,-3.3682333E-3,2.8332133E0,2.9957323E0,1.2659023E-3,4.940197E-3,8.434426E-3,-9.09327E-3,-8.331738E-3,-7.610557E-3,-6.8577197E-3,-6.1431103E-3,-4.4560116E-3,-2.4328157E-3,-1.5124576E-3,-1.7332993E-4,4.854346E-4],"split_indices":[22,22,22,22,22,0,0,22,22,0,0,22,22,22,22,0,22,22,22,22,22,0,0,0,22,22,22,0,22,22,0,0,0,0,0,0,0,0,0,0,0,0,0],"split_type":[0,0,0,0,0,0,0,0,0,0,0,0,0,0,0,0,0,0,0,0,0,0,0,0,0,0,0,0,0,0,0,0,0,0,0,0,0,0,0,0,0,0,0],"sum_hessian":[6.772E3,6.718E3,5.4E1,6.629E3,8.9E1,3E1,2.4E1,5.822E3,8.07E2,6.5E1,2.4E1,2.511E3,3.311E3,6.43E2,1.64E2,8.58E2,1.653E3,2.979E3,3.32E2,4.65E2,1.78E2,9.2E1,7.2E1,1.059E3,5.94E2,5.53E2,2.426E3,3E1,3.02E2,1.6E1,4.49E2,5.5E1,1.23E2,3.89E2,2.05E2,3.47E2,2.06E2,2.405E3,2.1E1,2.94E2,8E0,4E0,1.2E1],"tree_param":{"num_deleted":"0","num_feature":"23","num_nodes":"43","size_leaf_vector":"1"}},{"base_weights":[3.1893842E-3,-5.652728E0,6.9095056E2,-8.164378E0,1.7943495E2,3.8612342E-1,6.6127545E-1,-1.0468829E1,8.453176E0,1.0271091E-1,2.133176E-1,-1.377533E1,-7.9578395E0,3.925896E0,2.6072054E1,-1.1802709E-2,-1.2748241E1,-8.470777E0,-3.3436913E0,1.6442622E0,9.843859E0,1.5541615E-2,2.4397897E-2,-9.9579375E-3,-1.178438E1,-9.78335E0,-8.167671E0,-3.3657886E-3,-3.2156103E0,4.2667794E-1,1.2649545E-3,4.936558E-3,8.428152E-3,-9.086467E-3,-8.325521E-3,-7.604866E-3,-6.852602E-3,-6.138505E-3,-4.452822E-3,-2.430998E-3,-1.5114491E-3,-1.732258E-4,4.850979E-4],"categories":[],"categories_nodes":[],"categories_segments":[],"categories_sizes":[],"default_left":[0,0,0,0,0,0,0,0,0,0,0,0,0,0,0,0,0,0,0,0,0,0,0,0,0,0,0,0,0,0,0,0,0,0,0,0,0,0,0,0,0,0,0],"id":16,"left_children":[1,3,5,7,9,-1,-1,11,13,-1,-1,15,17,19,21,-1,23,25,27,29,31,-1,-1,-1,33,35,37,-1,39,41,-1,-1,-1,-1,-1,-1,-1,-1,-1,-1,-1,-1,-1],"loss_changes":[2.647239E7,3.1249632E6,1.393786E6,2.5397997E5,3.6250775E5,0E0,0E0,4.8236312E4,6.434824E4,0E0,0E0,4.8604375E3,7.810422E3,8.679504E3,5.0270156E3,0E0,6.86875E2,1.1056875E3,3.4363037E1,2.3305908E1,7.397422E2,0E0,0E0,0E0,1.25E-1,3.5039062E1,4.3453125E1,0E0,2.8225098E0,2.6103175E0,0E0,0E0,0E0,0E0,0E0,0E0,0E0,0E0,0E0,0E0,0E0,0E0,0E0],"parents":[2147483647,0,0,1,1,2,2,3,3,4,4,7,7,8,8,11,11,12,12,13,13,14,14,16,16,17,17,18,18,19,19,20,20,24,24,25,25,26,26,28,28,29,29],"right_children":[2,4,6,8,10,-1,-1,12,14,-1,-1,16,18,20,22,-1,24,26,28,30,32,-1,-1,-1,34,36,38,-1,40,42,-1,-1,-1,-1,-1,-1,-1,-1,-1,-1,-1,-1,-1],"split_conditions":[6.1696105E0,5.075174E0,6.6795993E0,2.944439E0,5.765191E0,3.8612342E-1,6.6127545E-1,2.1972246E0,3.583519E0,1.0271091E-1,2.133176E-1,1.609438E0,2.6390574E0,3.2580965E0,3.9318256E0,-1.1802709E-2,1.9459101E0,2.3978953E0,2.7725887E0,3.0445225E0,3.3672957E0,1.5541615E-2,2.4397897E-2,-9.9579375E-3,2.0794415E0,2.3025851E0,2.5649493E0,-3.3657886E-3,2.8332133E0,2.9957323E0,1.2649545E-3,4.936558E-3,8.428152E-3,-9.086467E-3,-8.325521E-3,-7.604866E-3,-6.852602E-3,-6.138505E-3,-4.452822E-3,-2.430998E-3,-1.5114491E-3,-1.732258E-4,4.850979E-4],"split_indices":[22,22,22,22,22,0,0,22,22,0,0,22,22,22,22,0,22,22,22,22,22,0,0,0,22,22,22,0,22,22,0,0,0,0,0,0,0,0,0,0,0,0,0],"split_type":[0,0,0,0,0,0,0,0,0,0,0,0,0,0,0,0,0,0,0,0,0,0,0,0,0,0,0,0,0,0,0,0,0,0,0,0,0,0,0,0,0,0,0],"sum_hessian":[6.772E3,6.718E3,5.4E1,6.629E3,8.9E1,3E1,2.4E1,5.822E3,8.07E2,6.5E1,2.4E1,2.511E3,3.311E3,6.43E2,1.64E2,8.58E2,1.653E3,2.979E3,3.32E2,4.65E2,1.78E2,9.2E1,7.2E1,1.059E3,5.94E2,5.53E2,2.426E3,3E1,3.02E2,1.6E1,4.49E2,5.5E1,1.23E2,3.89E2,2.05E2,3.47E2,2.06E2,2.405E3,2.1E1,2.94E2,8E0,4E0,1.2E1],"tree_param":{"num_deleted":"0","num_feature":"23","num_nodes":"43","size_leaf_vector":"1"}},{"base_weights":[3.385829E-3,-5.6484437E0,6.904514E2,-8.1582575E0,1.793039E2,3.858432E-1,6.607993E-1,-1.046099E1,8.446903E0,1.0263505E-1,2.1316402E-1,-1.3765014E1,-7.9518814E0,3.9229748E0,2.6052742E1,-1.1793867E-2,-1.2738696E1,-8.464433E0,-3.3412046E0,1.6430328E0,9.836551E0,1.5530085E-2,2.437985E-2,-9.950477E-3,-1.1775571E1,-9.776039E0,-8.1615505E0,-3.363345E-3,-3.2132108E0,4.263768E-1,1.2640082E-3,4.9329223E-3,8.421881E-3,-9.0796705E-3,-8.319307E-3,-7.5991787E-3,-6.8474873E-3,-6.1339033E-3,-4.449633E-3,-2.4291803E-3,-1.510442E-3,-1.7312165E-4,4.8476248E-4],"categories":[],"categories_nodes":[],"categories_segments":[],"categories_sizes":[],"default_left":[0,0,0,0,0,0,0,0,0,0,0,0,0,0,0,0,0,0,0,0,0,0,0,0,0,0,0,0,0,0,0,0,0,0,0,0,0,0,0,0,0,0,0],"id":17,"left_children":[1,3,5,7,9,-1,-1,11,13,-1,-1,15,17,19,21,-1,23,25,27,29,31,-1,-1,-1,33,35,37,-1,39,41,-1,-1,-1,-1,-1,-1,-1,-1,-1,-1,-1,-1,-1],"loss_changes":[2.6434142E7,3.1203948E6,1.391812E6,2.5360125E5,3.62E5,0E0,0E0,4.8164125E4,6.4253023E4,0E0,0E0,4.853125E3,7.7986562E3,8.666641E3,5.0196094E3,0E0,6.8584375E2,1.1040625E3,3.4318604E1,2.3270508E1,7.38625E2,0E0,0E0,0E0,1.171875E-1,3.498047E1,4.3359375E1,0E0,2.8144531E0,2.6068459E0,0E0,0E0,0E0,0E0,0E0,0E0,0E0,0E0,0E0,0E0,0E0,0E0,0E0],"parents":[2147483647,0,0,1,1,2,2,3,3,4,4,7,7,8,8,11,11,12,12,13,13,14,14,16,16,17,17,18,18,19,19,20,20,24,24,25,25,26,26,28,28,29,29],"right_children":[2,4,6,8,10,-1,-1,12,14,-1,-1,16,18,20,22,-1,24,26,28,30,32,-1,-1,-1,34,36,38,-1,40,42,-1,-1,-1,-1,-1,-1,-1,-1,-1,-1,-1,-1,-1],"split_conditions":[6.1696105E0,5.075174E0,6.6795993E0,2.944439E0,5.765191E0,3.858432E-1,6.607993E-1,2.1972246E0,3.583519E0,1.0263505E-1,2.1316402E-1,1.609438E0,2.6390574E0,3.2580965E0,3.9318256E0,-1.1793867E-2,1.9459101E0,2.3978953E0,2.7725887E0,3.0445225E0,3.3672957E0,1.5530085E-2,2.437985E-2,-9.950477E-3,2.0794415E0,2.3025851E0,2.5649493E0,-3.363345E-3,2.8332133E0,2.9957323E0,1.2640082E-3,4.9329223E-3,8.421881E-3,-9.0796705E-3,-8.319307E-3,-7.5991787E-3,-6.8474873E-3,-6.1339033E-3,-4.449633E-3,-2.4291803E-3,-1.510442E-3,-1.7312165E-4,4.8476248E-4],"split_indices":[22,22,22,22,22,0,0,22,22,0,0,22,22,22,22,0,22,22,22,22,22,0,0,0,22,22,22,0,22,22,0,0,0,0,0,0,0,0,0,0,0,0,0],"split_type":[0,0,0,0,0,0,0,0,0,0,0,0,0,0,0,0,0,0,0,0,0,0,0,0,0,0,0,0,0,0,0,0,0,0,0,0,0,0,0,0,0,0,0],"sum_hessian":[6.772E3,6.718E3,5.4E1,6.629E3,8.9E1,3E1,2.4E1,5.822E3,8.07E2,6.5E1,2.4E1,2.511E3,3.311E3,6.43E2,1.64E2,8.58E2,1.653E3,2.979E3,3.32E2,4.65E2,1.78E2,9.2E1,7.2E1,1.059E3,5.94E2,5.53E2,2.426E3,3E1,3.02E2,1.6E1,4.49E2,5.5E1,1.23E2,3.89E2,2.05E2,3.47E2,2.06E2,2.405E3,2.1E1,2.94E2,8E0,4E0,1.2E1],"tree_param":{"num_deleted":"0","num_feature":"23","num_nodes":"43","size_leaf_vector":"1"}},{"base_weights":[3.5818391E-3,-5.644163E0,6.899526E2,-8.152142E0,1.7917293E2,3.8556314E-1,6.603235E-1,-1.0453156E1,8.440637E0,1.0255924E-1,2.1301053E-1,-1.3754705E1,-7.945927E0,3.9200556E0,2.6033445E1,-1.1785033E-2,-1.2729159E1,-8.458093E0,-3.33872E0,1.6418034E0,9.829248E0,1.5518562E-2,2.4361813E-2,-9.94302E-3,-1.1766768E1,-9.768733E0,-8.155434E0,-3.3609045E-3,-3.210813E0,4.2607567E-1,1.2630618E-3,4.929289E-3,8.415616E-3,-9.072878E-3,-8.313098E-3,-7.5934962E-3,-6.842376E-3,-6.129305E-3,-4.4464474E-3,-2.427364E-3,-1.509435E-3,-1.730175E-4,4.8442706E-4],"categories":[],"categories_nodes":[],"categories_segments":[],"categories_sizes":[],"default_left":[0,0,0,0,0,0,0,0,0,0,0,0,0,0,0,0,0,0,0,0,0,0,0,0,0,0,0,0,0,0,0,0,0,0,0,0,0,0,0,0,0,0,0],"id":18,"left_children":[1,3,5,7,9,-1,-1,11,13,-1,-1,15,17,19,21,-1,23,25,27,29,31,-1,-1,-1,33,35,37,-1,39,41,-1,-1,-1,-1,-1,-1,-1,-1,-1,-1,-1,-1,-1],"loss_changes":[2.6395944E7,3.1158328E6,1.389842E6,2.5322322E5,3.614935E5,0E0,0E0,4.8092E4,6.4157953E4,0E0,0E0,4.8458438E3,7.786922E3,8.653797E3,5.01225E3,0E0,6.848125E2,1.1024375E3,3.4273438E1,2.3234741E1,7.3750977E2,0E0,0E0,0E0,1.171875E-1,3.492578E1,4.3265625E1,0E0,2.807129E0,2.6033769E0,0E0,0E0,0E0,0E0,0E0,0E0,0E0,0E0,0E0,0E0,0E0,0E0,0E0],"parents":[2147483647,0,0,1,1,2,2,3,3,4,4,7,7,8,8,11,11,12,12,13,13,14,14,16,16,17,17,18,18,19,19,20,20,24,24,25,25,26,26,28,28,29,29],"right_children":[2,4,6,8,10,-1,-1,12,14,-1,-1,16,18,20,22,-1,24,26,28,30,32,-1,-1,-1,34,36,38,-1,40,42,-1,-1,-1,-1,-1,-1,-1,-1,-1,-1,-1,-1,-1],"split_conditions":[6.1696105E0,5.075174E0,6.6795993E0,2.944439E0,5.765191E0,3.8556314E-1,6.603235E-1,2.1972246E0,3.583519E0,1.0255924E-1,2.1301053E-1,1.609438E0,2.6390574E0,3.2580965E0,3.9318256E0,-1.1785033E-2,1.9459101E0,2.3978953E0,2.7725887E0,3.0445225E0,3.3672957E0,1.5518562E-2,2.4361813E-2,-9.94302E-3,2.0794415E0,2.3025851E0,2.5649493E0,-3.3609045E-3,2.8332133E0,2.9957323E0,1.2630618E-3,4.929289E-3,8.415616E-3,-9.072878E-3,-8.313098E-3,-7.5934962E-3,-6.842376E-3,-6.129305E-3,-4.4464474E-3,-2.427364E-3,-1.509435E-3,-1.730175E-4,4.8442706E-4],"split_indices":[22,22,22,22,22,0,0,22,22,0,0,22,22,22,22,0,22,22,22,22,22,0,0,0,22,22,22,0,22,22,0,0,0,0,0,0,0,0,0,0,0,0,0],"split_type":[0,0,0,0,0,0,0,0,0,0,0,0,0,0,0,0,0,0,0,0,0,0,0,0,0,0,0,0,0,0,0,0,0,0,0,0,0,0,0,0,0,0,0],"sum_hessian":[6.772E3,6.718E3,5.4E1,6.629E3,8.9E1,3E1,2.4E1,5.822E3,8.07E2,6.5E1,2.4E1,2.511E3,3.311E3,6.43E2,1.64E2,8.58E2,1.653E3,2.979E3,3.32E2,4.65E2,1.78E2,9.2E1,7.2E1,1.059E3,5.94E2,5.53E2,2.426E3,3E1,3.02E2,1.6E1,4.49E2,5.5E1,1.23E2,3.89E2,2.05E2,3.47E2,2.06E2,2.405E3,2.1E1,2.94E2,8E0,4E0,1.2E1],"tree_param":{"num_deleted":"0","num_feature":"23","num_nodes":"43","size_leaf_vector":"1"}},{"base_weights":[3.7781808E-3,-5.639885E0,6.8945416E2,-8.146029E0,1.7904205E2,3.8528326E-1,6.598481E-1,-1.0445329E1,8.434374E0,1.0248348E-1,2.1285716E-1,-1.3744405E1,-7.9399767E0,3.917139E0,2.601416E1,-1.1776203E-2,-1.2719628E1,-8.4517565E0,-3.3362372E0,1.6405758E0,9.821952E0,1.5507049E-2,2.4343792E-2,-9.93557E-3,-1.1757973E1,-9.761433E0,-8.149321E0,-3.3584652E-3,-3.2084174E0,4.257745E-1,1.262117E-3,4.9256585E-3,8.409356E-3,-9.066091E-3,-8.3068935E-3,-7.587818E-3,-6.8372698E-3,-6.1247093E-3,-4.4432646E-3,-2.425549E-3,-1.5084293E-3,-1.7291337E-4,4.840917E-4],"categories":[],"categories_nodes":[],"categories_segments":[],"categories_sizes":[],"default_left":[0,0,0,0,0,0,0,0,0,0,0,0,0,0,0,0,0,0,0,0,0,0,0,0,0,0,0,0,0,0,0,0,0,0,0,0,0,0,0,0,0,0,0],"id":19,"left_children":[1,3,5,7,9,-1,-1,11,13,-1,-1,15,17,19,21,-1,23,25,27,29,31,-1,-1,-1,33,35,37,-1,39,41,-1,-1,-1,-1,-1,-1,-1,-1,-1,-1,-1,-1,-1],"loss_changes":[2.6357806E7,3.111277E6,1.387874E6,2.5284569E5,3.609875E5,0E0,0E0,4.802E4,6.4063023E4,0E0,0E0,4.8385625E3,7.7752188E3,8.640974E3,5.004867E3,0E0,6.8375E2,1.1008125E3,3.422876E1,2.3199097E1,7.3639453E2,0E0,0E0,0E0,1.015625E-1,3.4871094E1,4.31875E1,0E0,2.7990723E0,2.5999093E0,0E0,0E0,0E0,0E0,0E0,0E0,0E0,0E0,0E0,0E0,0E0,0E0,0E0],"parents":[2147483647,0,0,1,1,2,2,3,3,4,4,7,7,8,8,11,11,12,12,13,13,14,14,16,16,17,17,18,18,19,19,20,20,24,24,25,25,26,26,28,28,29,29],"right_children":[2,4,6,8,10,-1,-1,12,14,-1,-1,16,18,20,22,-1,24,26,28,30,32,-1,-1,-1,34,36,38,-1,40,42,-1,-1,-1,-1,-1,-1,-1,-1,-1,-1,-1,-1,-1],"split_conditions":[6.1696105E0,5.075174E0,6.6795993E0,2.944439E0,5.765191E0,3.8528326E-1,6.598481E-1,2.1972246E0,3.583519E0,1.0248348E-1,2.1285716E-1,1.609438E0,2.6390574E0,3.2580965E0,3.9318256E0,-1.1776203E-2,1.9459101E0,2.3978953E0,2.7725887E0,3.0445225E0,3.3672957E0,1.5507049E-2,2.4343792E-2,-9.93557E-3,2.0794415E0,2.3025851E0,2.5649493E0,-3.3584652E-3,2.8332133E0,2.9957323E0,1.262117E-3,4.9256585E-3,8.409356E-3,-9.066091E-3,-8.3068935E-3,-7.587818E-3,-6.8372698E-3,-6.1247093E-3,-4.4432646E-3,-2.425549E-3,-1.5084293E-3,-1.7291337E-4,4.840917E-4],"split_indices":[22,22,22,22,22,0,0,22,22,0,0,22,22,22,22,0,22,22,22,22,22,0,0,0,22,22,22,0,22,22,0,0,0,0,0,0,0,0,0,0,0,0,0],"split_type":[0,0,0,0,0,0,0,0,0,0,0,0,0,0,0,0,0,0,0,0,0,0,0,0,0,0,0,0,0,0,0,0,0,0,0,0,0,0,0,0,0,0,0],"sum_hessian":[6.772E3,6.718E3,5.4E1,6.629E3,8.9E1,3E1,2.4E1,5.822E3,8.07E2,6.5E1,2.4E1,2.511E3,3.311E3,6.43E2,1.64E2,8.58E2,1.653E3,2.979E3,3.32E2,4.65E2,1.78E2,9.2E1,7.2E1,1.059E3,5.94E2,5.53E2,2.426E3,3E1,3.02E2,1.6E1,4.49E2,5.5E1,1.23E2,3.89E2,2.05E2,3.47E2,2.06E2,2.405E3,2.1E1,2.94E2,8E0,4E0,1.2E1],"tree_param":{"num_deleted":"0","num_feature":"23","num_nodes":"43","size_leaf_vector":"1"}},{"base_weights":[3.973653E-3,-5.635611E0,6.8895605E2,-8.139922E0,1.7891127E2,3.8500366E-1,6.59373E-1,-1.0437507E1,8.428116E0,1.02407776E-1,2.127039E-1,-1.3734112E1,-7.9340315E0,3.9142241E0,2.5994892E1,-1.1767383E-2,-1.2710106E1,-8.445427E0,-3.3337564E0,1.6393483E0,9.81466E0,1.5495543E-2,2.4325784E-2,-9.928125E-3,-1.1749185E1,-9.754138E0,-8.143213E0,-3.3560272E-3,-3.2060235E0,4.254734E-1,1.261172E-3,4.922031E-3,8.403099E-3,-9.059309E-3,-8.300694E-3,-7.5821434E-3,-6.8321666E-3,-6.1201174E-3,-4.440083E-3,-2.4237356E-3,-1.5074235E-3,-1.7280922E-4,4.837563E-4],"categories":[],"categories_nodes":[],"categories_segments":[],"categories_sizes":[],"default_left":[0,0,0,0,0,0,0,0,0,0,0,0,0,0,0,0,0,0,0,0,0,0,0,0,0,0,0,0,0,0,0,0,0,0,0,0,0,0,0,0,0,0,0],"id":20,"left_children":[1,3,5,7,9,-1,-1,11,13,-1,-1,15,17,19,21,-1,23,25,27,29,31,-1,-1,-1,33,35,37,-1,39,41,-1,-1,-1,-1,-1,-1,-1,-1,-1,-1,-1,-1,-1],"loss_changes":[2.631972E7,3.1067285E6,1.385908E6,2.5246862E5,3.60482E5,0E0,0E0,4.7948125E4,6.3968227E4,0E0,0E0,4.8313125E3,7.7635E3,8.628168E3,4.997508E3,0E0,6.8265625E2,1.0992031E3,3.4184082E1,2.3163818E1,7.3528125E2,0E0,0E0,0E0,1.015625E-1,3.48125E1,4.3109375E1,0E0,2.791504E0,2.5964453E0,0E0,0E0,0E0,0E0,0E0,0E0,0E0,0E0,0E0,0E0,0E0,0E0,0E0],"parents":[2147483647,0,0,1,1,2,2,3,3,4,4,7,7,8,8,11,11,12,12,13,13,14,14,16,16,17,17,18,18,19,19,20,20,24,24,25,25,26,26,28,28,29,29],"right_children":[2,4,6,8,10,-1,-1,12,14,-1,-1,16,18,20,22,-1,24,26,28,30,32,-1,-1,-1,34,36,38,-1,40,42,-1,-1,-1,-1,-1,-1,-1,-1,-1,-1,-1,-1,-1],"split_conditions":[6.1696105E0,5.075174E0,6.6795993E0,2.944439E0,5.765191E0,3.8500366E-1,6.59373E-1,2.1972246E0,3.583519E0,1.02407776E-1,2.127039E-1,1.609438E0,2.6390574E0,3.2580965E0,3.9318256E0,-1.1767383E-2,1.9459101E0,2.3978953E0,2.7725887E0,3.0445225E0,3.3672957E0,1.5495543E-2,2.4325784E-2,-9.928125E-3,2.0794415E0,2.3025851E0,2.5649493E0,-3.3560272E-3,2.8332133E0,2.9957323E0,1.261172E-3,4.922031E-3,8.403099E-3,-9.059309E-3,-8.300694E-3,-7.5821434E-3,-6.8321666E-3,-6.1201174E-3,-4.440083E-3,-2.4237356E-3,-1.5074235E-3,-1.7280922E-4,4.837563E-4],"split_indices":[22,22,22,22,22,0,0,22,22,0,0,22,22,22,22,0,22,22,22,22,22,0,0,0,22,22,22,0,22,22,0,0,0,0,0,0,0,0,0,0,0,0,0],"split_type":[0,0,0,0,0,0,0,0,0,0,0,0,0,0,0,0,0,0,0,0,0,0,0,0,0,0,0,0,0,0,0,0,0,0,0,0,0,0,0,0,0,0,0],"sum_hessian":[6.772E3,6.718E3,5.4E1,6.629E3,8.9E1,3E1,2.4E1,5.822E3,8.07E2,6.5E1,2.4E1,2.511E3,3.311E3,6.43E2,1.64E2,8.58E2,1.653E3,2.979E3,3.32E2,4.65E2,1.78E2,9.2E1,7.2E1,1.059E3,5.94E2,5.53E2,2.426E3,3E1,3.02E2,1.6E1,4.49E2,5.5E1,1.23E2,3.89E2,2.05E2,3.47E2,2.06E2,2.405E3,2.1E1,2.94E2,8E0,4E0,1.2E1],"tree_param":{"num_deleted":"0","num_feature":"23","num_nodes":"43","size_leaf_vector":"1"}},{"base_weights":[4.1692015E-3,-5.6313396E0,6.884583E2,-8.13382E0,1.7878061E2,3.847242E-1,6.5889823E-1,-1.042969E1,8.421863E0,1.02332145E-1,2.1255077E-1,-1.3723827E1,-7.92809E0,3.9113116E0,2.5975637E1,-1.1758568E-2,-1.270059E1,-8.4391E0,-3.3312776E0,1.6381224E0,9.807372E0,1.5484048E-2,2.430779E-2,-9.9206865E-3,-1.1740401E1,-9.746849E0,-8.13711E0,-3.3535906E-3,-3.2036314E0,4.2517224E-1,1.2602286E-3,4.9184044E-3,8.396848E-3,-9.052531E-3,-8.294499E-3,-7.576474E-3,-6.8270667E-3,-6.1155288E-3,-4.436904E-3,-2.4219237E-3,-1.5064189E-3,-1.7270508E-4,4.8342088E-4],"categories":[],"categories_nodes":[],"categories_segments":[],"categories_sizes":[],"default_left":[0,0,0,0,0,0,0,0,0,0,0,0,0,0,0,0,0,0,0,0,0,0,0,0,0,0,0,0,0,0,0,0,0,0,0,0,0,0,0,0,0,0,0],"id":21,"left_children":[1,3,5,7,9,-1,-1,11,13,-1,-1,15,17,19,21,-1,23,25,27,29,31,-1,-1,-1,33,35,37,-1,39,41,-1,-1,-1,-1,-1,-1,-1,-1,-1,-1,-1,-1,-1],"loss_changes":[2.6281692E7,3.102187E6,1.383942E6,2.5209222E5,3.5997725E5,0E0,0E0,4.7876312E4,6.387358E4,0E0,0E0,4.8240625E3,7.751828E3,8.615379E3,4.990164E3,0E0,6.8165625E2,1.0975781E3,3.4139893E1,2.312854E1,7.341699E2,0E0,0E0,0E0,9.375E-2,3.4757812E1,4.303125E1,0E0,2.7839355E0,2.5929832E0,0E0,0E0,0E0,0E0,0E0,0E0,0E0,0E0,0E0,0E0,0E0,0E0,0E0],"parents":[2147483647,0,0,1,1,2,2,3,3,4,4,7,7,8,8,11,11,12,12,13,13,14,14,16,16,17,17,18,18,19,19,20,20,24,24,25,25,26,26,28,28,29,29],"right_children":[2,4,6,8,10,-1,-1,12,14,-1,-1,16,18,20,22,-1,24,26,28,30,32,-1,-1,-1,34,36,38,-1,40,42,-1,-1,-1,-1,-1,-1,-1,-1,-1,-1,-1,-1,-1],"split_conditions":[6.1696105E0,5.075174E0,6.6795993E0,2.944439E0,5.765191E0,3.847242E-1,6.5889823E-1,2.1972246E0,3.583519E0,1.02332145E-1,2.1255077E-1,1.609438E0,2.6390574E0,3.2580965E0,3.9318256E0,-1.1758568E-2,1.9459101E0,2.3978953E0,2.7725887E0,3.0445225E0,3.3672957E0,1.5484048E-2,2.430779E-2,-9.9206865E-3,2.0794415E0,2.3025851E0,2.5649493E0,-3.3535906E-3,2.8332133E0,2.9957323E0,1.2602286E-3,4.9184044E-3,8.396848E-3,-9.052531E-3,-8.294499E-3,-7.576474E-3,-6.8270667E-3,-6.1155288E-3,-4.436904E-3,-2.4219237E-3,-1.5064189E-3,-1.7270508E-4,4.8342088E-4],"split_indices":[22,22,22,22,22,0,0,22,22,0,0,22,22,22,22,0,22,22,22,22,22,0,0,0,22,22,22,0,22,22,0,0,0,0,0,0,0,0,0,0,0,0,0],"split_type":[0,0,0,0,0,0,0,0,0,0,0,0,0,0,0,0,0,0,0,0,0,0,0,0,0,0,0,0,0,0,0,0,0,0,0,0,0,0,0,0,0,0,0],"sum_hessian":[6.772E3,6.718E3,5.4E1,6.629E3,8.9E1,3E1,2.4E1,5.822E3,8.07E2,6.5E1,2.4E1,2.511E3,3.311E3,6.43E2,1.64E2,8.58E2,1.653E3,2.979E3,3.32E2,4.65E2,1.78E2,9.2E1,7.2E1,1.059E3,5.94E2,5.53E2,2.426E3,3E1,3.02E2,1.6E1,4.49E2,5.5E1,1.23E2,3.89E2,2.05E2,3.47E2,2.06E2,2.405E3,2.1E1,2.94E2,8E0,4E0,1.2E1],"tree_param":{"num_deleted":"0","num_feature":"23","num_nodes":"43","size_leaf_vector":"1"}},{"base_weights":[4.3636193E-3,-5.627072E0,6.8796094E2,-8.127722E0,1.7865001E2,3.8444495E-1,6.5842384E-1,-1.0421881E1,8.415613E0,1.0225655E-1,2.1239774E-1,-1.3713551E1,-7.9221544E0,3.908401E0,2.5956396E1,-1.1749758E-2,-1.2691081E1,-8.43278E0,-3.3288007E0,1.6368967E0,9.800092E0,1.5472559E-2,2.4289811E-2,-9.913254E-3,-1.1731625E1,-9.739565E0,-8.131012E0,-3.351157E-3,-3.2012413E0,4.2487246E-1,1.259285E-3,4.914781E-3,8.390601E-3,-9.04576E-3,-8.288308E-3,-7.5708074E-3,-6.821972E-3,-6.110945E-3,-4.433728E-3,-2.420113E-3,-1.5054144E-3,-1.7260094E-4,4.8308683E-4],"categories":[],"categories_nodes":[],"categories_segments":[],"categories_sizes":[],"default_left":[0,0,0,0,0,0,0,0,0,0,0,0,0,0,0,0,0,0,0,0,0,0,0,0,0,0,0,0,0,0,0,0,0,0,0,0,0,0,0,0,0,0,0],"id":22,"left_children":[1,3,5,7,9,-1,-1,11,13,-1,-1,15,17,19,21,-1,23,25,27,29,31,-1,-1,-1,33,35,37,-1,39,41,-1,-1,-1,-1,-1,-1,-1,-1,-1,-1,-1,-1,-1],"loss_changes":[2.6243714E7,3.0976512E6,1.381986E6,2.5171638E5,3.594735E5,0E0,0E0,4.7804562E4,6.3779055E4,0E0,0E0,4.8168125E3,7.740172E3,8.60261E3,4.982836E3,0E0,6.8059375E2,1.0959531E3,3.409497E1,2.309314E1,7.330625E2,0E0,0E0,0E0,9.375E-2,3.470703E1,4.29375E1,0E0,2.776123E0,2.5895336E0,0E0,0E0,0E0,0E0,0E0,0E0,0E0,0E0,0E0,0E0,0E0,0E0,0E0],"parents":[2147483647,0,0,1,1,2,2,3,3,4,4,7,7,8,8,11,11,12,12,13,13,14,14,16,16,17,17,18,18,19,19,20,20,24,24,25,25,26,26,28,28,29,29],"right_children":[2,4,6,8,10,-1,-1,12,14,-1,-1,16,18,20,22,-1,24,26,28,30,32,-1,-1,-1,34,36,38,-1,40,42,-1,-1,-1,-1,-1,-1,-1,-1,-1,-1,-1,-1,-1],"split_conditions":[6.1696105E0,5.075174E0,6.6795993E0,2.944439E0,5.765191E0,3.8444495E-1,6.5842384E-1,2.1972246E0,3.583519E0,1.0225655E-1,2.1239774E-1,1.609438E0,2.6390574E0,3.2580965E0,3.9318256E0,-1.1749758E-2,1.9459101E0,2.3978953E0,2.7725887E0,3.0445225E0,3.3672957E0,1.5472559E-2,2.4289811E-2,-9.913254E-3,2.0794415E0,2.3025851E0,2.5649493E0,-3.351157E-3,2.8332133E0,2.9957323E0,1.259285E-3,4.914781E-3,8.390601E-3,-9.04576E-3,-8.288308E-3,-7.5708074E-3,-6.821972E-3,-6.110945E-3,-4.433728E-3,-2.420113E-3,-1.5054144E-3,-1.7260094E-4,4.8308683E-4],"split_indices":[22,22,22,22,22,0,0,22,22,0,0,22,22,22,22,0,22,22,22,22,22,0,0,0,22,22,22,0,22,22,0,0,0,0,0,0,0,0,0,0,0,0,0],"split_type":[0,0,0,0,0,0,0,0,0,0,0,0,0,0,0,0,0,0,0,0,0,0,0,0,0,0,0,0,0,0,0,0,0,0,0,0,0,0,0,0,0,0,0],"sum_hessian":[6.772E3,6.718E3,5.4E1,6.629E3,8.9E1,3E1,2.4E1,5.822E3,8.07E2,6.5E1,2.4E1,2.511E3,3.311E3,6.43E2,1.64E2,8.58E2,1.653E3,2.979E3,3.32E2,4.65E2,1.78E2,9.2E1,7.2E1,1.059E3,5.94E2,5.53E2,2.426E3,3E1,3.02E2,1.6E1,4.49E2,5.5E1,1.23E2,3.89E2,2.05E2,3.47E2,2.06E2,2.405E3,2.1E1,2.94E2,8E0,4E0,1.2E1],"tree_param":{"num_deleted":"0","num_feature":"23","num_nodes":"43","size_leaf_vector":"1"}},{"base_weights":[4.5584966E-3,-5.6228075E0,6.874639E2,-8.121629E0,1.7851952E2,3.8416594E-1,6.5794975E-1,-1.0414077E1,8.409369E0,1.02181025E-1,2.1224481E-1,-1.3703281E1,-7.9162226E0,3.905493E0,2.593717E1,-1.1740957E-2,-1.268158E1,-8.426464E0,-3.3263257E0,1.6356729E0,9.792816E0,1.546108E-2,2.4271844E-2,-9.905826E-3,-1.1722856E1,-9.732286E0,-8.124918E0,-3.3487247E-3,-3.198853E0,4.2457223E-1,1.2583431E-3,4.9111606E-3,8.384359E-3,-9.038992E-3,-8.282122E-3,-7.5651463E-3,-6.81688E-3,-6.1063627E-3,-4.4305534E-3,-2.418304E-3,-1.504411E-3,-1.7249794E-4,4.8275274E-4],"categories":[],"categories_nodes":[],"categories_segments":[],"categories_sizes":[],"default_left":[0,0,0,0,0,0,0,0,0,0,0,0,0,0,0,0,0,0,0,0,0,0,0,0,0,0,0,0,0,0,0,0,0,0,0,0,0,0,0,0,0,0,0],"id":23,"left_children":[1,3,5,7,9,-1,-1,11,13,-1,-1,15,17,19,21,-1,23,25,27,29,31,-1,-1,-1,33,35,37,-1,39,41,-1,-1,-1,-1,-1,-1,-1,-1,-1,-1,-1,-1,-1],"loss_changes":[2.6205796E7,3.0931225E6,1.380028E6,2.513411E5,3.5897025E5,0E0,0E0,4.7733E4,6.368469E4,0E0,0E0,4.8095938E3,7.7285312E3,8.589858E3,4.9755156E3,0E0,6.795625E2,1.0943594E3,3.405078E1,2.3057861E1,7.319551E2,0E0,0E0,0E0,8.59375E-2,3.464453E1,4.2859375E1,0E0,2.7687988E0,2.586096E0,0E0,0E0,0E0,0E0,0E0,0E0,0E0,0E0,0E0,0E0,0E0,0E0,0E0],"parents":[2147483647,0,0,1,1,2,2,3,3,4,4,7,7,8,8,11,11,12,12,13,13,14,14,16,16,17,17,18,18,19,19,20,20,24,24,25,25,26,26,28,28,29,29],"right_children":[2,4,6,8,10,-1,-1,12,14,-1,-1,16,18,20,22,-1,24,26,28,30,32,-1,-1,-1,34,36,38,-1,40,42,-1,-1,-1,-1,-1,-1,-1,-1,-1,-1,-1,-1,-1],"split_conditions":[6.1696105E0,5.075174E0,6.6795993E0,2.944439E0,5.765191E0,3.8416594E-1,6.5794975E-1,2.1972246E0,3.583519E0,1.02181025E-1,2.1224481E-1,1.609438E0,2.6390574E0,3.2580965E0,3.9318256E0,-1.1740957E-2,1.9459101E0,2.3978953E0,2.7725887E0,3.0445225E0,3.3672957E0,1.546108E-2,2.4271844E-2,-9.905826E-3,2.0794415E0,2.3025851E0,2.5649493E0,-3.3487247E-3,2.8332133E0,2.9957323E0,1.2583431E-3,4.9111606E-3,8.384359E-3,-9.038992E-3,-8.282122E-3,-7.5651463E-3,-6.81688E-3,-6.1063627E-3,-4.4305534E-3,-2.418304E-3,-1.504411E-3,-1.7249794E-4,4.8275274E-4],"split_indices":[22,22,22,22,22,0,0,22,22,0,0,22,22,22,22,0,22,22,22,22,22,0,0,0,22,22,22,0,22,22,0,0,0,0,0,0,0,0,0,0,0,0,0],"split_type":[0,0,0,0,0,0,0,0,0,0,0,0,0,0,0,0,0,0,0,0,0,0,0,0,0,0,0,0,0,0,0,0,0,0,0,0,0,0,0,0,0,0,0],"sum_hessian":[6.772E3,6.718E3,5.4E1,6.629E3,8.9E1,3E1,2.4E1,5.822E3,8.07E2,6.5E1,2.4E1,2.511E3,3.311E3,6.43E2,1.64E2,8.58E2,1.653E3,2.979E3,3.32E2,4.65E2,1.78E2,9.2E1,7.2E1,1.059E3,5.94E2,5.53E2,2.426E3,3E1,3.02E2,1.6E1,4.49E2,5.5E1,1.23E2,3.89E2,2.05E2,3.47E2,2.06E2,2.405E3,2.1E1,2.94E2,8E0,4E0,1.2E1],"tree_param":{"num_deleted":"0","num_feature":"23","num_nodes":"43","size_leaf_vector":"1"}},{"base_weights":[4.7525433E-3,-5.618546E0,6.869673E2,-8.1155405E0,1.7838911E2,3.8388708E-1,6.5747607E-1,-1.0406279E1,8.40313E0,1.0210555E-1,2.1209198E-1,-1.3693019E1,-7.9102955E0,3.9025867E0,2.591796E1,-1.5382589E1,-1.2516112E1,-8.420153E0,-3.3238523E0,1.634449E0,9.785545E0,1.5449609E-2,2.4253888E-2,-1.1986691E-2,-1.0974131E-2,-9.7777955E-3,-1.1714092E1,-9.725014E0,-8.11883E0,-3.346294E-3,-3.1964667E0,4.2427197E-1,1.257401E-3,4.907543E-3,8.378121E-3,-9.03223E-3,-8.275941E-3,-7.5594895E-3,-6.8117916E-3,-6.101786E-3,-4.4273813E-3,-2.4164962E-3,-1.5034078E-3,-1.7239494E-4,4.8241863E-4],"categories":[],"categories_nodes":[],"categories_segments":[],"categories_sizes":[],"default_left":[0,0,0,0,0,0,0,0,0,0,0,0,0,0,0,0,0,0,0,0,0,0,0,0,0,0,0,0,0,0,0,0,0,0,0,0,0,0,0,0,0,0,0,0,0],"id":24,"left_children":[1,3,5,7,9,-1,-1,11,13,-1,-1,15,17,19,21,23,25,27,29,31,33,-1,-1,-1,-1,-1,35,37,39,-1,41,43,-1,-1,-1,-1,-1,-1,-1,-1,-1,-1,-1,-1,-1],"loss_changes":[2.616793E7,3.0886002E6,1.378072E6,2.5096634E5,3.584675E5,0E0,0E0,4.7661562E4,6.359046E4,0E0,0E0,4.8024688E3,7.7168906E3,8.577128E3,4.9681875E3,2.2829688E2,4.6814062E2,1.09275E3,3.400586E1,2.3022583E1,7.308496E2,0E0,0E0,0E0,0E0,0E0,7.8125E-2,3.459375E1,4.2765625E1,0E0,2.7612305E0,2.5826607E0,0E0,0E0,0E0,0E0,0E0,0E0,0E0,0E0,0E0,0E0,0E0,0E0,0E0],"parents":[2147483647,0,0,1,1,2,2,3,3,4,4,7,7,8,8,11,11,12,12,13,13,14,14,15,15,16,16,17,17,18,18,19,19,20,20,26,26,27,27,28,28,30,30,31,31],"right_children":[2,4,6,8,10,-1,-1,12,14,-1,-1,16,18,20,22,24,26,28,30,32,34,-1,-1,-1,-1,-1,36,38,40,-1,42,44,-1,-1,-1,-1,-1,-1,-1,-1,-1,-1,-1,-1,-1],"split_conditions":[6.1696105E0,5.075174E0,6.6795993E0,2.944439E0,5.765191E0,3.8388708E-1,6.5747607E-1,2.1972246E0,3.583519E0,1.0210555E-1,2.1209198E-1,1.7917595E0,2.6390574E0,3.2580965E0,3.9318256E0,1.3862944E0,1.9459101E0,2.3978953E0,2.7725887E0,3.0445225E0,3.3672957E0,1.5449609E-2,2.4253888E-2,-1.1986691E-2,-1.0974131E-2,-9.7777955E-3,2.0794415E0,2.3025851E0,2.5649493E0,-3.346294E-3,2.8332133E0,2.9957323E0,1.257401E-3,4.907543E-3,8.378121E-3,-9.03223E-3,-8.275941E-3,-7.5594895E-3,-6.8117916E-3,-6.101786E-3,-4.4273813E-3,-2.4164962E-3,-1.5034078E-3,-1.7239494E-4,4.8241863E-4],"split_indices":[22,22,22,22,22,0,0,22,22,0,0,22,22,22,22,22,22,22,22,22,22,0,0,0,0,0,22,22,22,0,22,22,0,0,0,0,0,0,0,0,0,0,0,0,0],"split_type":[0,0,0,0,0,0,0,0,0,0,0,0,0,0,0,0,0,0,0,0,0,0,0,0,0,0,0,0,0,0,0,0,0,0,0,0,0,0,0,0,0,0,0,0,0],"sum_hessian":[6.772E3,6.718E3,5.4E1,6.629E3,8.9E1,3E1,2.4E1,5.822E3,8.07E2,6.5E1,2.4E1,2.511E3,3.311E3,6.43E2,1.64E2,1.026E3,1.485E3,2.979E3,3.32E2,4.65E2,1.78E2,9.2E1,7.2E1,5.59E2,4.67E2,8.91E2,5.94E2,5.53E2,2.426E3,3E1,3.02E2,1.6E1,4.49E2,5.5E1,1.23E2,3.89E2,2.05E2,3.47E2,2.06E2,2.405E3,2.1E1,2.94E2,8E0,4E0,1.2E1],"tree_param":{"num_deleted":"0","num_feature":"23","num_nodes":"45","size_leaf_vector":"1"}},{"base_weights":[4.9449466E-3,-5.6142898E0,6.86471E2,-8.109458E0,1.7825882E2,3.836085E-1,6.570027E-1,-1.0398489E1,8.396895E0,1.02030136E-1,2.1193928E-1,-1.3682769E1,-7.9043727E0,3.899683E0,2.5898762E1,-1.1723447E-2,-1.2662553E1,-8.413847E0,-3.3213813E0,1.633227E0,9.778279E0,1.5438146E-2,2.4235945E-2,-9.890934E-3,-1.1705337E1,-9.717747E0,-8.112744E0,-3.3438657E-3,-3.194082E0,4.2397174E-1,1.2564604E-3,4.903928E-3,8.371888E-3,-9.025475E-3,-8.2697645E-3,-7.553837E-3,-6.8067084E-3,-6.097212E-3,-4.424212E-3,-2.4146899E-3,-1.5024057E-3,-1.7229194E-4,4.8208455E-4],"categories":[],"categories_nodes":[],"categories_segments":[],"categories_sizes":[],"default_left":[0,0,0,0,0,0,0,0,0,0,0,0,0,0,0,0,0,0,0,0,0,0,0,0,0,0,0,0,0,0,0,0,0,0,0,0,0,0,0,0,0,0,0],"id":25,"left_children":[1,3,5,7,9,-1,-1,11,13,-1,-1,15,17,19,21,-1,23,25,27,29,31,-1,-1,-1,33,35,37,-1,39,41,-1,-1,-1,-1,-1,-1,-1,-1,-1,-1,-1,-1,-1],"loss_changes":[2.613012E7,3.084085E6,1.37612E6,2.5059219E5,3.5796575E5,0E0,0E0,4.759025E4,6.349638E4,0E0,0E0,4.795625E3,7.7052656E3,8.564417E3,4.9608906E3,0E0,6.7740625E2,1.0911406E3,3.3961914E1,2.2987427E1,7.297422E2,0E0,0E0,0E0,7.03125E-2,3.4539062E1,4.26875E1,0E0,2.7531738E0,2.5792277E0,0E0,0E0,0E0,0E0,0E0,0E0,0E0,0E0,0E0,0E0,0E0,0E0,0E0],"parents":[2147483647,0,0,1,1,2,2,3,3,4,4,7,7,8,8,11,11,12,12,13,13,14,14,16,16,17,17,18,18,19,19,20,20,24,24,25,25,26,26,28,28,29,29],"right_children":[2,4,6,8,10,-1,-1,12,14,-1,-1,16,18,20,22,-1,24,26,28,30,32,-1,-1,-1,34,36,38,-1,40,42,-1,-1,-1,-1,-1,-1,-1,-1,-1,-1,-1,-1,-1],"split_conditions":[6.1696105E0,5.075174E0,6.6795993E0,2.944439E0,5.765191E0,3.836085E-1,6.570027E-1,2.1972246E0,3.583519E0,1.02030136E-1,2.1193928E-1,1.609438E0,2.6390574E0,3.2580965E0,3.9318256E0,-1.1723447E-2,1.9459101E0,2.3978953E0,2.7725887E0,3.0445225E0,3.3672957E0,1.5438146E-2,2.4235945E-2,-9.890934E-3,2.0794415E0,2.3025851E0,2.5649493E0,-3.3438657E-3,2.8332133E0,2.9957323E0,1.2564604E-3,4.903928E-3,8.371888E-3,-9.025475E-3,-8.2697645E-3,-7.553837E-3,-6.8067084E-3,-6.097212E-3,-4.424212E-3,-2.4146899E-3,-1.5024057E-3,-1.7229194E-4,4.8208455E-4],"split_indices":[22,22,22,22,22,0,0,22,22,0,0,22,22,22,22,0,22,22,22,22,22,0,0,0,22,22,22,0,22,22,0,0,0,0,0,0,0,0,0,0,0,0,0],"split_type":[0,0,0,0,0,0,0,0,0,0,0,0,0,0,0,0,0,0,0,0,0,0,0,0,0,0,0,0,0,0,0,0,0,0,0,0,0,0,0,0,0,0,0],"sum_hessian":[6.772E3,6.718E3,5.4E1,6.629E3,8.9E1,3E1,2.4E1,5.822E3,8.07E2,6.5E1,2.4E1,2.511E3,3.311E3,6.43E2,1.64E2,8.58E2,1.653E3,2.979E3,3.32E2,4.65E2,1.78E2,9.2E1,7.2E1,1.059E3,5.94E2,5.53E2,2.426E3,3E1,3.02E2,1.6E1,4.49E2,5.5E1,1.23E2,3.89E2,2.05E2,3.47E2,2.06E2,2.405E3,2.1E1,2.94E2,8E0,4E0,1.2E1],"tree_param":{"num_deleted":"0","num_feature":"23","num_nodes":"43","size_leaf_vector":"1"}},{"base_weights":[5.1387893E-3,-5.610035E0,6.859751E2,-8.103378E0,1.7812862E2,3.8333005E-1,6.565296E-1,-1.0390701E1,8.390665E0,1.01954766E-1,2.1178667E-1,-1.3672523E1,-7.8984537E0,3.896781E0,2.5879578E1,-1.5359664E1,-1.249731E1,-8.407544E0,-3.318912E0,1.632005E0,9.77102E0,1.5426692E-2,2.421802E-2,-1.19689405E-2,-1.0957637E-2,-9.763061E-3,-1.1696587E1,-9.7104845E0,-8.106664E0,-3.3414387E-3,-3.1916995E0,4.2367148E-1,1.2555198E-3,4.900316E-3,8.36566E-3,-9.018723E-3,-8.263592E-3,-7.5481883E-3,-6.801627E-3,-6.09264E-3,-4.421044E-3,-2.412885E-3,-1.5014039E-3,-1.7218894E-4,4.817505E-4],"categories":[],"categories_nodes":[],"categories_segments":[],"categories_sizes":[],"default_left":[0,0,0,0,0,0,0,0,0,0,0,0,0,0,0,0,0,0,0,0,0,0,0,0,0,0,0,0,0,0,0,0,0,0,0,0,0,0,0,0,0,0,0,0,0],"id":26,"left_children":[1,3,5,7,9,-1,-1,11,13,-1,-1,15,17,19,21,23,25,27,29,31,33,-1,-1,-1,-1,-1,35,37,39,-1,41,43,-1,-1,-1,-1,-1,-1,-1,-1,-1,-1,-1,-1,-1],"loss_changes":[2.6092364E7,3.0795758E6,1.374172E6,2.502186E5,3.5746425E5,0E0,0E0,4.7519E4,6.340241E4,0E0,0E0,4.78875E3,7.693672E3,8.551724E3,4.9536016E3,2.2784375E2,4.6657812E2,1.0895312E3,3.3917725E1,2.2952515E1,7.286406E2,0E0,0E0,0E0,0E0,0E0,7.03125E-2,3.4484375E1,4.2609375E1,0E0,2.7458496E0,2.575797E0,0E0,0E0,0E0,0E0,0E0,0E0,0E0,0E0,0E0,0E0,0E0,0E0,0E0],"parents":[2147483647,0,0,1,1,2,2,3,3,4,4,7,7,8,8,11,11,12,12,13,13,14,14,15,15,16,16,17,17,18,18,19,19,20,20,26,26,27,27,28,28,30,30,31,31],"right_children":[2,4,6,8,10,-1,-1,12,14,-1,-1,16,18,20,22,24,26,28,30,32,34,-1,-1,-1,-1,-1,36,38,40,-1,42,44,-1,-1,-1,-1,-1,-1,-1,-1,-1,-1,-1,-1,-1],"split_conditions":[6.1696105E0,5.075174E0,6.6795993E0,2.944439E0,5.765191E0,3.8333005E-1,6.565296E-1,2.1972246E0,3.583519E0,1.01954766E-1,2.1178667E-1,1.7917595E0,2.6390574E0,3.2580965E0,3.9318256E0,1.3862944E0,1.9459101E0,2.3978953E0,2.7725887E0,3.0445225E0,3.3672957E0,1.5426692E-2,2.421802E-2,-1.19689405E-2,-1.0957637E-2,-9.763061E-3,2.0794415E0,2.3025851E0,2.5649493E0,-3.3414387E-3,2.8332133E0,2.9957323E0,1.2555198E-3,4.900316E-3,8.36566E-3,-9.018723E-3,-8.263592E-3,-7.5481883E-3,-6.801627E-3,-6.09264E-3,-4.421044E-3,-2.412885E-3,-1.5014039E-3,-1.7218894E-4,4.817505E-4],"split_indices":[22,22,22,22,22,0,0,22,22,0,0,22,22,22,22,22,22,22,22,22,22,0,0,0,0,0,22,22,22,0,22,22,0,0,0,0,0,0,0,0,0,0,0,0,0],"split_type":[0,0,0,0,0,0,0,0,0,0,0,0,0,0,0,0,0,0,0,0,0,0,0,0,0,0,0,0,0,0,0,0,0,0,0,0,0,0,0,0,0,0,0,0,0],"sum_hessian":[6.772E3,6.718E3,5.4E1,6.629E3,8.9E1,3E1,2.4E1,5.822E3,8.07E2,6.5E1,2.4E1,2.511E3,3.311E3,6.43E2,1.64E2,1.026E3,1.485E3,2.979E3,3.32E2,4.65E2,1.78E2,9.2E1,7.2E1,5.59E2,4.67E2,8.91E2,5.94E2,5.53E2,2.426E3,3E1,3.02E2,1.6E1,4.49E2,5.5E1,1.23E2,3.89E2,2.05E2,3.47E2,2.06E2,2.405E3,2.1E1,2.94E2,8E0,4E0,1.2E1],"tree_param":{"num_deleted":"0","num_feature":"23","num_nodes":"45","size_leaf_vector":"1"}},{"base_weights":[5.3306473E-3,-5.605785E0,6.854795E2,-8.097305E0,1.779985E2,3.830518E-1,6.5605694E-1,-1.0382923E1,8.384439E0,1.0187946E-1,2.1163422E-1,-1.3662288E1,-7.8925405E0,3.8938818E0,2.5860409E1,-1.1705962E-2,-1.2643555E1,-8.401247E0,-3.3164449E0,1.6307847E0,9.763766E0,1.5415247E-2,2.4200102E-2,-9.876065E-3,-1.1687843E1,-9.703228E0,-8.100589E0,-3.3390133E-3,-3.1893187E0,4.2337126E-1,1.2545807E-3,4.8967064E-3,8.359436E-3,-9.011976E-3,-8.257423E-3,-7.5425436E-3,-6.7965505E-3,-6.088073E-3,-4.4178786E-3,-2.4110815E-3,-1.500403E-3,-1.7208594E-4,4.814164E-4],"categories":[],"categories_nodes":[],"categories_segments":[],"categories_sizes":[],"default_left":[0,0,0,0,0,0,0,0,0,0,0,0,0,0,0,0,0,0,0,0,0,0,0,0,0,0,0,0,0,0,0,0,0,0,0,0,0,0,0,0,0,0,0],"id":27,"left_children":[1,3,5,7,9,-1,-1,11,13,-1,-1,15,17,19,21,-1,23,25,27,29,31,-1,-1,-1,33,35,37,-1,39,41,-1,-1,-1,-1,-1,-1,-1,-1,-1,-1,-1,-1,-1],"loss_changes":[2.6054662E7,3.075074E6,1.372226E6,2.498456E5,3.5696425E5,0E0,0E0,4.7447875E4,6.3308598E4,0E0,0E0,4.7817188E3,7.682125E3,8.539049E3,4.9463203E3,0E0,6.7525E2,1.0879375E3,3.3873047E1,2.2917358E1,7.27541E2,0E0,0E0,0E0,6.25E-2,3.4429688E1,4.2515625E1,0E0,2.7382812E0,2.5723686E0,0E0,0E0,0E0,0E0,0E0,0E0,0E0,0E0,0E0,0E0,0E0,0E0,0E0],"parents":[2147483647,0,0,1,1,2,2,3,3,4,4,7,7,8,8,11,11,12,12,13,13,14,14,16,16,17,17,18,18,19,19,20,20,24,24,25,25,26,26,28,28,29,29],"right_children":[2,4,6,8,10,-1,-1,12,14,-1,-1,16,18,20,22,-1,24,26,28,30,32,-1,-1,-1,34,36,38,-1,40,42,-1,-1,-1,-1,-1,-1,-1,-1,-1,-1,-1,-1,-1],"split_conditions":[6.1696105E0,5.075174E0,6.6795993E0,2.944439E0,5.765191E0,3.830518E-1,6.5605694E-1,2.1972246E0,3.583519E0,1.0187946E-1,2.1163422E-1,1.609438E0,2.6390574E0,3.2580965E0,3.9318256E0,-1.1705962E-2,1.9459101E0,2.3978953E0,2.7725887E0,3.0445225E0,3.3672957E0,1.5415247E-2,2.4200102E-2,-9.876065E-3,2.0794415E0,2.3025851E0,2.5649493E0,-3.3390133E-3,2.8332133E0,2.9957323E0,1.2545807E-3,4.8967064E-3,8.359436E-3,-9.011976E-3,-8.257423E-3,-7.5425436E-3,-6.7965505E-3,-6.088073E-3,-4.4178786E-3,-2.4110815E-3,-1.500403E-3,-1.7208594E-4,4.814164E-4],"split_indices":[22,22,22,22,22,0,0,22,22,0,0,22,22,22,22,0,22,22,22,22,22,0,0,0,22,22,22,0,22,22,0,0,0,0,0,0,0,0,0,0,0,0,0],"split_type":[0,0,0,0,0,0,0,0,0,0,0,0,0,0,0,0,0,0,0,0,0,0,0,0,0,0,0,0,0,0,0,0,0,0,0,0,0,0,0,0,0,0,0],"sum_hessian":[6.772E3,6.718E3,5.4E1,6.629E3,8.9E1,3E1,2.4E1,5.822E3,8.07E2,6.5E1,2.4E1,2.511E3,3.311E3,6.43E2,1.64E2,8.58E2,1.653E3,2.979E3,3.32E2,4.65E2,1.78E2,9.2E1,7.2E1,1.059E3,5.94E2,5.53E2,2.426E3,3E1,3.02E2,1.6E1,4.49E2,5.5E1,1.23E2,3.89E2,2.05E2,3.47E2,2.06E2,2.405E3,2.1E1,2.94E2,8E0,4E0,1.2E1],"tree_param":{"num_deleted":"0","num_feature":"23","num_nodes":"43","size_leaf_vector":"1"}},{"base_weights":[5.523836E-3,-5.6015363E0,6.8498425E2,-8.091235E0,1.778685E2,3.827738E-1,6.555846E-1,-1.0375148E1,8.378219E0,1.0180421E-1,2.1148182E-1,-1.3652057E1,-7.8866305E0,3.890984E0,2.5841253E1,-1.5336771E1,-1.2478535E1,-8.394955E0,-3.3139794E0,1.6295645E0,9.756517E0,1.5403809E-2,2.4182202E-2,-1.1951217E-2,-1.0941167E-2,-9.748348E-3,-1.1679106E1,-9.695977E0,-8.094518E0,-3.3365893E-3,-3.1869397E0,4.2307237E-1,1.2536414E-3,4.8931E-3,8.353217E-3,-9.005235E-3,-8.25126E-3,-7.5369035E-3,-6.7914785E-3,-6.0835085E-3,-4.4147163E-3,-2.4092793E-3,-1.4994025E-3,-1.7198296E-4,4.8108364E-4],"categories":[],"categories_nodes":[],"categories_segments":[],"categories_sizes":[],"default_left":[0,0,0,0,0,0,0,0,0,0,0,0,0,0,0,0,0,0,0,0,0,0,0,0,0,0,0,0,0,0,0,0,0,0,0,0,0,0,0,0,0,0,0,0,0],"id":28,"left_children":[1,3,5,7,9,-1,-1,11,13,-1,-1,15,17,19,21,23,25,27,29,31,33,-1,-1,-1,-1,-1,35,37,39,-1,41,43,-1,-1,-1,-1,-1,-1,-1,-1,-1,-1,-1,-1,-1],"loss_changes":[2.6017014E7,3.070578E6,1.370284E6,2.4947306E5,3.5646425E5,0E0,0E0,4.7376875E4,6.321492E4,0E0,0E0,4.7749688E3,7.670547E3,8.526394E3,4.939047E3,2.2739062E2,4.6504688E2,1.0863281E3,3.38291E1,2.2882324E1,7.2643945E2,0E0,0E0,0E0,0E0,0E0,5.46875E-2,3.4375E1,4.24375E1,0E0,2.730957E0,2.5689526E0,0E0,0E0,0E0,0E0,0E0,0E0,0E0,0E0,0E0,0E0,0E0,0E0,0E0],"parents":[2147483647,0,0,1,1,2,2,3,3,4,4,7,7,8,8,11,11,12,12,13,13,14,14,15,15,16,16,17,17,18,18,19,19,20,20,26,26,27,27,28,28,30,30,31,31],"right_children":[2,4,6,8,10,-1,-1,12,14,-1,-1,16,18,20,22,24,26,28,30,32,34,-1,-1,-1,-1,-1,36,38,40,-1,42,44,-1,-1,-1,-1,-1,-1,-1,-1,-1,-1,-1,-1,-1],"split_conditions":[6.1696105E0,5.075174E0,6.6795993E0,2.944439E0,5.765191E0,3.827738E-1,6.555846E-1,2.1972246E0,3.583519E0,1.0180421E-1,2.1148182E-1,1.7917595E0,2.6390574E0,3.2580965E0,3.9318256E0,1.3862944E0,1.9459101E0,2.3978953E0,2.7725887E0,3.0445225E0,3.3672957E0,1.5403809E-2,2.4182202E-2,-1.1951217E-2,-1.0941167E-2,-9.748348E-3,2.0794415E0,2.3025851E0,2.5649493E0,-3.3365893E-3,2.8332133E0,2.9957323E0,1.2536414E-3,4.8931E-3,8.353217E-3,-9.005235E-3,-8.25126E-3,-7.5369035E-3,-6.7914785E-3,-6.0835085E-3,-4.4147163E-3,-2.4092793E-3,-1.4994025E-3,-1.7198296E-4,4.8108364E-4],"split_indices":[22,22,22,22,22,0,0,22,22,0,0,22,22,22,22,22,22,22,22,22,22,0,0,0,0,0,22,22,22,0,22,22,0,0,0,0,0,0,0,0,0,0,0,0,0],"split_type":[0,0,0,0,0,0,0,0,0,0,0,0,0,0,0,0,0,0,0,0,0,0,0,0,0,0,0,0,0,0,0,0,0,0,0,0,0,0,0,0,0,0,0,0,0],"sum_hessian":[6.772E3,6.718E3,5.4E1,6.629E3,8.9E1,3E1,2.4E1,5.822E3,8.07E2,6.5E1,2.4E1,2.511E3,3.311E3,6.43E2,1.64E2,1.026E3,1.485E3,2.979E3,3.32E2,4.65E2,1.78E2,9.2E1,7.2E1,5.59E2,4.67E2,8.91E2,5.94E2,5.53E2,2.426E3,3E1,3.02E2,1.6E1,4.49E2,5.5E1,1.23E2,3.89E2,2.05E2,3.47E2,2.06E2,2.405E3,2.1E1,2.94E2,8E0,4E0,1.2E1],"tree_param":{"num_deleted":"0","num_feature":"23","num_nodes":"45","size_leaf_vector":"1"}},{"base_weights":[5.715643E-3,-5.5972924E0,6.8448944E2,-8.08517E0,1.7773857E2,3.8249597E-1,6.5511256E-1,-1.036738E1,8.372003E0,1.0172901E-1,2.1132955E-1,-1.3641838E1,-7.8807244E0,3.8880894E0,2.5822113E1,-1.1688504E-2,-1.2624585E1,-8.388666E0,-3.3115158E0,1.6283462E0,9.749275E0,1.5392381E-2,2.4164315E-2,-9.861219E-3,-1.1670376E1,-9.68873E0,-8.08845E0,-3.334168E-3,-3.1845627E0,4.2277348E-1,1.2527036E-3,4.889496E-3,8.347003E-3,-8.998498E-3,-8.245102E-3,-7.5312667E-3,-6.786409E-3,-6.0789473E-3,-4.411555E-3,-2.4074789E-3,-1.4984029E-3,-1.7187996E-4,4.8075087E-4],"categories":[],"categories_nodes":[],"categories_segments":[],"categories_sizes":[],"default_left":[0,0,0,0,0,0,0,0,0,0,0,0,0,0,0,0,0,0,0,0,0,0,0,0,0,0,0,0,0,0,0,0,0,0,0,0,0,0,0,0,0,0,0],"id":29,"left_children":[1,3,5,7,9,-1,-1,11,13,-1,-1,15,17,19,21,-1,23,25,27,29,31,-1,-1,-1,33,35,37,-1,39,41,-1,-1,-1,-1,-1,-1,-1,-1,-1,-1,-1,-1,-1],"loss_changes":[2.5979422E7,3.066089E6,1.368342E6,2.4910112E5,3.5596525E5,0E0,0E0,4.7306E4,6.3121383E4,0E0,0E0,4.7678125E3,7.659E3,8.513758E3,4.931797E3,0E0,6.7309375E2,1.0847188E3,3.3784912E1,2.2847412E1,7.253418E2,0E0,0E0,0E0,5.46875E-2,3.4320312E1,4.2359375E1,0E0,2.7233887E0,2.565539E0,0E0,0E0,0E0,0E0,0E0,0E0,0E0,0E0,0E0,0E0,0E0,0E0,0E0],"parents":[2147483647,0,0,1,1,2,2,3,3,4,4,7,7,8,8,11,11,12,12,13,13,14,14,16,16,17,17,18,18,19,19,20,20,24,24,25,25,26,26,28,28,29,29],"right_children":[2,4,6,8,10,-1,-1,12,14,-1,-1,16,18,20,22,-1,24,26,28,30,32,-1,-1,-1,34,36,38,-1,40,42,-1,-1,-1,-1,-1,-1,-1,-1,-1,-1,-1,-1,-1],"split_conditions":[6.1696105E0,5.075174E0,6.6795993E0,2.944439E0,5.765191E0,3.8249597E-1,6.5511256E-1,2.1972246E0,3.583519E0,1.0172901E-1,2.1132955E-1,1.609438E0,2.6390574E0,3.2580965E0,3.9318256E0,-1.1688504E-2,1.9459101E0,2.3978953E0,2.7725887E0,3.0445225E0,3.3672957E0,1.5392381E-2,2.4164315E-2,-9.861219E-3,2.0794415E0,2.3025851E0,2.5649493E0,-3.334168E-3,2.8332133E0,2.9957323E0,1.2527036E-3,4.889496E-3,8.347003E-3,-8.998498E-3,-8.245102E-3,-7.5312667E-3,-6.786409E-3,-6.0789473E-3,-4.411555E-3,-2.4074789E-3,-1.4984029E-3,-1.7187996E-4,4.8075087E-4],"split_indices":[22,22,22,22,22,0,0,22,22,0,0,22,22,22,22,0,22,22,22,22,22,0,0,0,22,22,22,0,22,22,0,0,0,0,0,0,0,0,0,0,0,0,0],"split_type":[0,0,0,0,0,0,0,0,0,0,0,0,0,0,0,0,0,0,0,0,0,0,0,0,0,0,0,0,0,0,0,0,0,0,0,0,0,0,0,0,0,0,0],"sum_hessian":[6.772E3,6.718E3,5.4E1,6.629E3,8.9E1,3E1,2.4E1,5.822E3,8.07E2,6.5E1,2.4E1,2.511E3,3.311E3,6.43E2,1.64E2,8.58E2,1.653E3,2.979E3,3.32E2,4.65E2,1.78E2,9.2E1,7.2E1,1.059E3,5.94E2,5.53E2,2.426E3,3E1,3.02E2,1.6E1,4.49E2,5.5E1,1.23E2,3.89E2,2.05E2,3.47E2,2.06E2,2.405E3,2.1E1,2.94E2,8E0,4E0,1.2E1],"tree_param":{"num_deleted":"0","num_feature":"23","num_nodes":"43","size_leaf_vector":"1"}},{"base_weights":[5.90807E-3,-5.5930505E0,6.8399493E2,-8.079109E0,1.7760875E2,3.8221836E-1,6.5464085E-1,-1.0359617E1,8.36579E0,1.01653874E-1,2.111774E-1,-1.3631622E1,-7.8748236E0,3.885196E0,2.5802986E1,-1.5313913E1,-1.2459788E1,-8.382383E0,-3.3090544E0,1.6271279E0,9.742037E0,1.5380961E-2,2.414644E-2,-1.19335195E-2,-1.0924725E-2,-9.733657E-3,-1.1661653E1,-9.681489E0,-8.082388E0,-3.331748E-3,-3.1821876E0,4.224746E-1,1.251766E-3,4.885894E-3,8.340794E-3,-8.991767E-3,-8.238948E-3,-7.5256336E-3,-6.781344E-3,-6.0743904E-3,-4.408397E-3,-2.4056798E-3,-1.4974035E-3,-1.7177696E-4,4.8041815E-4],"categories":[],"categories_nodes":[],"categories_segments":[],"categories_sizes":[],"default_left":[0,0,0,0,0,0,0,0,0,0,0,0,0,0,0,0,0,0,0,0,0,0,0,0,0,0,0,0,0,0,0,0,0,0,0,0,0,0,0,0,0,0,0,0,0],"id":30,"left_children":[1,3,5,7,9,-1,-1,11,13,-1,-1,15,17,19,21,23,25,27,29,31,33,-1,-1,-1,-1,-1,35,37,39,-1,41,43,-1,-1,-1,-1,-1,-1,-1,-1,-1,-1,-1,-1,-1],"loss_changes":[2.5941884E7,3.0616062E6,1.366404E6,2.4872975E5,3.5546675E5,0E0,0E0,4.7235188E4,6.3027984E4,0E0,0E0,4.7612188E3,7.6475E3,8.501143E3,4.924539E3,2.269375E2,4.6353125E2,1.083125E3,3.3740967E1,2.2812378E1,7.2424414E2,0E0,0E0,0E0,0E0,0E0,4.6875E-2,3.4265625E1,4.2265625E1,0E0,2.7155762E0,2.562127E0,0E0,0E0,0E0,0E0,0E0,0E0,0E0,0E0,0E0,0E0,0E0,0E0,0E0],"parents":[2147483647,0,0,1,1,2,2,3,3,4,4,7,7,8,8,11,11,12,12,13,13,14,14,15,15,16,16,17,17,18,18,19,19,20,20,26,26,27,27,28,28,30,30,31,31],"right_children":[2,4,6,8,10,-1,-1,12,14,-1,-1,16,18,20,22,24,26,28,30,32,34,-1,-1,-1,-1,-1,36,38,40,-1,42,44,-1,-1,-1,-1,-1,-1,-1,-1,-1,-1,-1,-1,-1],"split_conditions":[6.1696105E0,5.075174E0,6.6795993E0,2.944439E0,5.765191E0,3.8221836E-1,6.5464085E-1,2.1972246E0,3.583519E0,1.01653874E-1,2.111774E-1,1.7917595E0,2.6390574E0,3.2580965E0,3.9318256E0,1.3862944E0,1.9459101E0,2.3978953E0,2.7725887E0,3.0445225E0,3.3672957E0,1.5380961E-2,2.414644E-2,-1.19335195E-2,-1.0924725E-2,-9.733657E-3,2.0794415E0,2.3025851E0,2.5649493E0,-3.331748E-3,2.8332133E0,2.9957323E0,1.251766E-3,4.885894E-3,8.340794E-3,-8.991767E-3,-8.238948E-3,-7.5256336E-3,-6.781344E-3,-6.0743904E-3,-4.408397E-3,-2.4056798E-3,-1.4974035E-3,-1.7177696E-4,4.8041815E-4],"split_indices":[22,22,22,22,22,0,0,22,22,0,0,22,22,22,22,22,22,22,22,22,22,0,0,0,0,0,22,22,22,0,22,22,0,0,0,0,0,0,0,0,0,0,0,0,0],"split_type":[0,0,0,0,0,0,0,0,0,0,0,0,0,0,0,0,0,0,0,0,0,0,0,0,0,0,0,0,0,0,0,0,0,0,0,0,0,0,0,0,0,0,0,0,0],"sum_hessian":[6.772E3,6.718E3,5.4E1,6.629E3,8.9E1,3E1,2.4E1,5.822E3,8.07E2,6.5E1,2.4E1,2.511E3,3.311E3,6.43E2,1.64E2,1.026E3,1.485E3,2.979E3,3.32E2,4.65E2,1.78E2,9.2E1,7.2E1,5.59E2,4.67E2,8.91E2,5.94E2,5.53E2,2.426E3,3E1,3.02E2,1.6E1,4.49E2,5.5E1,1.23E2,3.89E2,2.05E2,3.47E2,2.06E2,2.405E3,2.1E1,2.94E2,8E0,4E0,1.2E1],"tree_param":{"num_deleted":"0","num_feature":"23","num_nodes":"45","size_leaf_vector":"1"}},{"base_weights":[6.0991757E-3,-5.588813E0,6.835008E2,-8.073053E0,1.7747902E2,3.8194093E-1,6.541695E-1,-1.0351861E1,8.359584E0,1.0157879E-1,2.1102534E-1,-1.3621418E1,-7.868927E0,3.8823054E0,2.5783873E1,-1.5302449E1,-1.2450462E1,-8.376104E0,-3.3065946E0,1.6259115E0,9.734804E0,1.536955E-2,2.4128577E-2,-1.1924584E-2,-1.0916548E-2,-9.726365E-3,-1.1652935E1,-9.674253E0,-8.07633E0,-3.32933E-3,-3.1798143E0,4.2217568E-1,1.2508295E-3,4.882294E-3,8.334588E-3,-8.985041E-3,-8.232798E-3,-7.520005E-3,-6.776283E-3,-6.0698353E-3,-4.405241E-3,-2.4038819E-3,-1.4964053E-3,-1.7167396E-4,4.8008538E-4],"categories":[],"categories_nodes":[],"categories_segments":[],"categories_sizes":[],"default_left":[0,0,0,0,0,0,0,0,0,0,0,0,0,0,0,0,0,0,0,0,0,0,0,0,0,0,0,0,0,0,0,0,0,0,0,0,0,0,0,0,0,0,0,0,0],"id":31,"left_children":[1,3,5,7,9,-1,-1,11,13,-1,-1,15,17,19,21,23,25,27,29,31,33,-1,-1,-1,-1,-1,35,37,39,-1,41,43,-1,-1,-1,-1,-1,-1,-1,-1,-1,-1,-1,-1,-1],"loss_changes":[2.5904398E7,3.0571302E6,1.364472E6,2.4835897E5,3.54969E5,0E0,0E0,4.7164438E4,6.293472E4,0E0,0E0,4.7541875E3,7.6359688E3,8.488541E3,4.9173047E3,2.2660938E2,4.628125E2,1.0815469E3,3.3696777E1,2.2777588E1,7.2315234E2,0E0,0E0,0E0,0E0,0E0,3.90625E-2,3.4210938E1,4.21875E1,0E0,2.7080078E0,2.5587177E0,0E0,0E0,0E0,0E0,0E0,0E0,0E0,0E0,0E0,0E0,0E0,0E0,0E0],"parents":[2147483647,0,0,1,1,2,2,3,3,4,4,7,7,8,8,11,11,12,12,13,13,14,14,15,15,16,16,17,17,18,18,19,19,20,20,26,26,27,27,28,28,30,30,31,31],"right_children":[2,4,6,8,10,-1,-1,12,14,-1,-1,16,18,20,22,24,26,28,30,32,34,-1,-1,-1,-1,-1,36,38,40,-1,42,44,-1,-1,-1,-1,-1,-1,-1,-1,-1,-1,-1,-1,-1],"split_conditions":[6.1696105E0,5.075174E0,6.6795993E0,2.944439E0,5.765191E0,3.8194093E-1,6.541695E-1,2.1972246E0,3.583519E0,1.0157879E-1,2.1102534E-1,1.7917595E0,2.6390574E0,3.2580965E0,3.9318256E0,1.3862944E0,1.9459101E0,2.3978953E0,2.7725887E0,3.0445225E0,3.3672957E0,1.536955E-2,2.4128577E-2,-1.1924584E-2,-1.0916548E-2,-9.726365E-3,2.0794415E0,2.3025851E0,2.5649493E0,-3.32933E-3,2.8332133E0,2.9957323E0,1.2508295E-3,4.882294E-3,8.334588E-3,-8.985041E-3,-8.232798E-3,-7.520005E-3,-6.776283E-3,-6.0698353E-3,-4.405241E-3,-2.4038819E-3,-1.4964053E-3,-1.7167396E-4,4.8008538E-4],"split_indices":[22,22,22,22,22,0,0,22,22,0,0,22,22,22,22,22,22,22,22,22,22,0,0,0,0,0,22,22,22,0,22,22,0,0,0,0,0,0,0,0,0,0,0,0,0],"split_type":[0,0,0,0,0,0,0,0,0,0,0,0,0,0,0,0,0,0,0,0,0,0,0,0,0,0,0,0,0,0,0,0,0,0,0,0,0,0,0,0,0,0,0,0,0],"sum_hessian":[6.772E3,6.718E3,5.4E1,6.629E3,8.9E1,3E1,2.4E1,5.822E3,8.07E2,6.5E1,2.4E1,2.511E3,3.311E3,6.43E2,1.64E2,1.026E3,1.485E3,2.979E3,3.32E2,4.65E2,1.78E2,9.2E1,7.2E1,5.59E2,4.67E2,8.91E2,5.94E2,5.53E2,2.426E3,3E1,3.02E2,1.6E1,4.49E2,5.5E1,1.23E2,3.89E2,2.05E2,3.47E2,2.06E2,2.405E3,2.1E1,2.94E2,8E0,4E0,1.2E1],"tree_param":{"num_deleted":"0","num_feature":"23","num_nodes":"45","size_leaf_vector":"1"}},{"base_weights":[6.289268E-3,-5.584579E0,6.8300696E2,-8.067003E0,1.7734938E2,3.816637E-1,6.536985E-1,-1.0344111E1,8.353381E0,1.0150376E-1,2.1087341E-1,-1.3611222E1,-7.863035E0,3.8794162E0,2.5764774E1,-1.1662401E-2,-1.2596163E1,-8.369831E0,-3.304137E0,1.624695E0,9.727576E0,1.5358146E-2,2.411073E-2,-9.838967E-3,-1.1644224E1,-9.667023E0,-8.070278E0,-3.3269126E-3,-3.177443E0,4.218768E-1,1.2498932E-3,4.8786975E-3,8.3283875E-3,-8.978318E-3,-8.2266545E-3,-7.514381E-3,-6.7712246E-3,-6.0652858E-3,-4.402087E-3,-2.4020856E-3,-1.4954071E-3,-1.7157097E-4,4.797526E-4],"categories":[],"categories_nodes":[],"categories_segments":[],"categories_sizes":[],"default_left":[0,0,0,0,0,0,0,0,0,0,0,0,0,0,0,0,0,0,0,0,0,0,0,0,0,0,0,0,0,0,0,0,0,0,0,0,0,0,0,0,0,0,0],"id":32,"left_children":[1,3,5,7,9,-1,-1,11,13,-1,-1,15,17,19,21,-1,23,25,27,29,31,-1,-1,-1,33,35,37,-1,39,41,-1,-1,-1,-1,-1,-1,-1,-1,-1,-1,-1,-1,-1],"loss_changes":[2.5866968E7,3.0526608E6,1.36254E6,2.4798878E5,3.54472E5,0E0,0E0,4.7093875E4,6.2841605E4,0E0,0E0,4.747375E3,7.6244844E3,8.475962E3,4.9100703E3,0E0,6.6984375E2,1.0799531E3,3.3652588E1,2.2742798E1,7.220586E2,0E0,0E0,0E0,4.6875E-2,3.4152344E1,4.2109375E1,0E0,2.7006836E0,2.5553107E0,0E0,0E0,0E0,0E0,0E0,0E0,0E0,0E0,0E0,0E0,0E0,0E0,0E0],"parents":[2147483647,0,0,1,1,2,2,3,3,4,4,7,7,8,8,11,11,12,12,13,13,14,14,16,16,17,17,18,18,19,19,20,20,24,24,25,25,26,26,28,28,29,29],"right_children":[2,4,6,8,10,-1,-1,12,14,-1,-1,16,18,20,22,-1,24,26,28,30,32,-1,-1,-1,34,36,38,-1,40,42,-1,-1,-1,-1,-1,-1,-1,-1,-1,-1,-1,-1,-1],"split_conditions":[6.1696105E0,5.075174E0,6.6795993E0,2.944439E0,5.765191E0,3.816637E-1,6.536985E-1,2.1972246E0,3.583519E0,1.0150376E-1,2.1087341E-1,1.609438E0,2.6390574E0,3.2580965E0,3.9318256E0,-1.1662401E-2,1.9459101E0,2.3978953E0,2.7725887E0,3.0445225E0,3.3672957E0,1.5358146E-2,2.411073E-2,-9.838967E-3,2.0794415E0,2.3025851E0,2.5649493E0,-3.3269126E-3,2.8332133E0,2.9957323E0,1.2498932E-3,4.8786975E-3,8.3283875E-3,-8.978318E-3,-8.2266545E-3,-7.514381E-3,-6.7712246E-3,-6.0652858E-3,-4.402087E-3,-2.4020856E-3,-1.4954071E-3,-1.7157097E-4,4.797526E-4],"split_indices":[22,22,22,22,22,0,0,22,22,0,0,22,22,22,22,0,22,22,22,22,22,0,0,0,22,22,22,0,22,22,0,0,0,0,0,0,0,0,0,0,0,0,0],"split_type":[0,0,0,0,0,0,0,0,0,0,0,0,0,0,0,0,0,0,0,0,0,0,0,0,0,0,0,0,0,0,0,0,0,0,0,0,0,0,0,0,0,0,0],"sum_hessian":[6.772E3,6.718E3,5.4E1,6.629E3,8.9E1,3E1,2.4E1,5.822E3,8.07E2,6.5E1,2.4E1,2.511E3,3.311E3,6.43E2,1.64E2,8.58E2,1.653E3,2.979E3,3.32E2,4.65E2,1.78E2,9.2E1,7.2E1,1.059E3,5.94E2,5.53E2,2.426E3,3E1,3.02E2,1.6E1,4.49E2,5.5E1,1.23E2,3.89E2,2.05E2,3.47E2,2.06E2,2.405E3,2.1E1,2.94E2,8E0,4E0,1.2E1],"tree_param":{"num_deleted":"0","num_feature":"23","num_nodes":"43","size_leaf_vector":"1"}},{"base_weights":[6.4809425E-3,-5.580347E0,6.8251355E2,-8.060956E0,1.7721983E2,3.813867E-1,6.5322787E-1,-1.0336366E1,8.347183E0,1.0142878E-1,2.1072157E-1,-1.360103E1,-7.8571477E0,3.8765302E0,2.574569E1,-1.5279643E1,-1.2431759E1,-8.363562E0,-3.3016813E0,1.6234803E0,9.720355E0,1.5346752E-2,2.4092894E-2,-1.1906926E-2,-1.0900142E-2,-9.711709E-3,-1.163552E1,-9.659798E0,-8.064229E0,-3.3244984E-3,-3.1750734E0,4.215779E-1,1.2489584E-3,4.875104E-3,8.322192E-3,-8.971603E-3,-8.220514E-3,-7.5087603E-3,-6.766171E-3,-6.060739E-3,-4.3989355E-3,-2.4002907E-3,-1.4944102E-3,-1.7146797E-4,4.794199E-4],"categories":[],"categories_nodes":[],"categories_segments":[],"categories_sizes":[],"default_left":[0,0,0,0,0,0,0,0,0,0,0,0,0,0,0,0,0,0,0,0,0,0,0,0,0,0,0,0,0,0,0,0,0,0,0,0,0,0,0,0,0,0,0,0,0],"id":33,"left_children":[1,3,5,7,9,-1,-1,11,13,-1,-1,15,17,19,21,23,25,27,29,31,33,-1,-1,-1,-1,-1,35,37,39,-1,41,43,-1,-1,-1,-1,-1,-1,-1,-1,-1,-1,-1,-1,-1],"loss_changes":[2.5829594E7,3.0481978E6,1.36061E6,2.4761894E5,3.5397575E5,0E0,0E0,4.7023438E4,6.274861E4,0E0,0E0,4.7405E3,7.6130156E3,8.463399E3,4.902867E3,2.2615625E2,4.6126562E2,1.0783594E3,3.3608887E1,2.270813E1,7.209668E2,0E0,0E0,0E0,0E0,0E0,3.125E-2,3.4097656E1,4.2015625E1,0E0,2.6933594E0,2.5519054E0,0E0,0E0,0E0,0E0,0E0,0E0,0E0,0E0,0E0,0E0,0E0,0E0,0E0],"parents":[2147483647,0,0,1,1,2,2,3,3,4,4,7,7,8,8,11,11,12,12,13,13,14,14,15,15,16,16,17,17,18,18,19,19,20,20,26,26,27,27,28,28,30,30,31,31],"right_children":[2,4,6,8,10,-1,-1,12,14,-1,-1,16,18,20,22,24,26,28,30,32,34,-1,-1,-1,-1,-1,36,38,40,-1,42,44,-1,-1,-1,-1,-1,-1,-1,-1,-1,-1,-1,-1,-1],"split_conditions":[6.1696105E0,5.075174E0,6.6795993E0,2.944439E0,5.765191E0,3.813867E-1,6.5322787E-1,2.1972246E0,3.583519E0,1.0142878E-1,2.1072157E-1,1.7917595E0,2.6390574E0,3.2580965E0,